tree
version=v3
num_class=1
num_tree_per_iteration=1
label_index=0
max_feature_idx=187
objective=binary sigmoid:1
feature_names=P_2 D_39 B_1 B_2 R_1 S_3 D_41 B_3 D_42 D_43 D_44 B_4 D_45 B_5 R_2 D_46 D_47 D_48 D_49 B_6 B_7 B_8 D_50 D_51 B_9 R_3 D_52 P_3 B_10 D_53 S_5 B_11 S_6 D_54 R_4 S_7 B_12 S_8 D_55 D_56 B_13 R_5 D_58 S_9 B_14 D_59 D_60 D_61 B_15 S_11 D_62 D_63 D_64 D_65 B_16 B_17 B_18 B_19 D_66 B_20 D_68 S_12 R_6 S_13 B_21 D_69 B_22 D_70 D_71 D_72 S_15 B_23 D_73 P_4 D_74 D_75 D_76 B_24 R_7 D_77 B_25 B_26 D_78 D_79 R_8 R_9 S_16 D_80 R_10 R_11 B_27 D_81 D_82 S_17 R_12 B_28 R_13 D_83 R_14 R_15 D_84 R_16 B_29 B_30 S_18 D_86 D_87 R_17 R_18 D_88 B_31 S_19 R_19 B_32 S_20 R_20 R_21 B_33 D_89 R_22 R_23 D_91 D_92 D_93 D_94 R_24 R_25 D_96 S_22 S_23 S_24 S_25 S_26 D_102 D_103 D_104 D_105 D_106 D_107 B_36 B_37 R_26 R_27 B_38 D_108 D_109 D_110 D_111 B_39 D_112 B_40 S_27 D_113 D_114 D_115 D_116 D_117 D_118 D_119 D_120 D_121 D_122 D_123 D_124 D_125 D_126 D_127 D_128 D_129 B_41 B_42 D_130 D_131 D_132 D_133 R_28 D_134 D_135 D_136 D_137 D_138 D_139 D_140 D_141 D_142 D_143 D_144 D_145
feature_infos=[-0.23573442563159991:1.009982119534502] [1.3089239526931086e-06:5.3556967845905383] [-0.0244014779891524:1.3240209026539171] [3.0445183025896719e-05:1.009993616531085] [1.1713934698298624e-06:2.5089889606065521] [-0.18507865751749539:2.1868981298921115] [7.3127900368508136e-07:5.532896224925679] [7.7167115212051225e-06:1.431132264298939] [-7.9860123212088059e-06:2.5575247841711461] [4.1816562768592917e-05:2.7833524056941572] [4.2325174942114964e-06:2.379402113132191] [9.4364732322049782e-06:2.6105194904306903] [8.9974540981707649e-05:1.5751263298915326] [4.3657825342080518e-06:15.270421008505116] [2.9260875061853931e-06:1.0099103692684994] [-1.9537662673416576:3.4662247842840168] [-0.026492247005688301:1.3373611694337666] [-0.0094810048404488992:1.7946224190595863] [0.00070920607367449997:7.045999119503243] [-0.0023366356691083001:20.664164871385125] [-0.0139353226445217:1.252164094343845] [3.0372567755931892e-06:1.0098120556377477] [-0.1360030262253864:7.5856992349965511] [1.5049284140922217e-06:2.0036921953521829] [1.0913839320914054e-06:3.8894773763277062] [1.681656428024203e-06:2.8083408028464087] [-0.0048367350123197997:1.0099963511217207] [-0.78179745792414201:1.556377885846955] [-0.0027988994398213001:76.654269850056409] [1.8469730553617447e-05:5.4650843781864991] [5.7783728264482197e-07:43.654233666460243] [1.4455767680254806e-06:1.4848607391573785] [2.3504953646139106e-07:1.0099977850820816] [-0.0014577065969806999:1.0099991177313112] [2.0129654535239185e-07:1.0099720930082727] [-0.1493726168333317:1.8711580666007115] [1.2097664957871902e-05:20.380357818288029] [5.3208006857097261e-06:1.2298367646550337] [3.27228656680012e-05:1.1823561695551561] [-0.015033119950236901:4.263461429084809] [1.0133573551180941e-05:18.298031948698501] [2.3720338484523041e-07:10.009497734090791] [5.7928344289748252e-07:1.2541413229211229] [3.9493582236649338e-05:2.8389347478994771] [-0.095417604194254102:9.8706375217791855] [-0.082672368666708795:1.3410002230470126] [5.648547919921976e-06:1.0099997623337815] [-0.0092065751852216:1.7907811905031019] [-0.11823771361792169:11.658395362207465] [-0.19837739867831239:1.8489122130130291] [-0.00058449769368169998:5.4345082644466629] [0:5] [0:4] [2.1201322374975185e-06:7.8992331273113177] [6.0243348389044106e-06:1.0099896877108632] [1.9112856653467072e-05:1.0099874768699235] [0.00010585431822610001:1.0099983565417858] [3.108612597183536e-06:1.0099963262866063] [0:1] [4.1402063547080211e-07:1.0099845984570499] [0:6] [-0.3291187070569313:3.3906794587643421] [8.1141489467140279e-07:14.44656615765377] [3.8828926279299568e-06:1.0099677234548663] [5.9480495037456121e-07:32.627515212125942] [1.9579125982871481e-06:572.07361279076758] [3.5482902448524808e-06:2.0044405087502439] [3.1023351858894269e-07:2.755532532260641] [4.6709912273016362e-05:10.145416825688717] [1.8018765131944115e-06:3.0097966468342858] [-0.29639376495053488:2.7024075176153262] [9.3107599318587045e-06:1.4509086955567849] [0.028177225754577699:0.44458503696797469] [9.3612773649498501e-08:1.1229135155776893] [2.4407371535828402e-06:2.2149726298436678] [7.5251428593658967e-07:2.0685052890210702] [0.0001435460696474:1.900212225426136] [1.8266025971946931e-06:10.16011037176148] [6.8104503337385049e-07:30.502101407559088] [3.7173626858580944e-05:5.0089112548850601] [-0.085897052866506701:3.2652420968399816] [5.4410932718185201e-07:48.570307949143711] [5.6906059077488359e-07:6.006794825818675] [4.1905687703236438e-07:3.0047157451312803] [8.1148028376665241e-07:13.004291839854099] [0.0004193864321299:1.5045870521487357] [1.215645563901191e-07:23.513242437894299] [1.0321888446407357e-07:3.6065118481721541] [9.2191418620268809e-08:12.006259033483586] [1.2275082775636826e-06:2.5085425980817124] [1.7226045534046718e-06:0.0153779119406119] [9.4732284225962362e-07:8.0090193307386226] [3.414665310321863e-05:1.5055432149226129] [3.8737905019115009e-06:4.0456133818668665] [-0.089171114243280697:1.0099994920513971] [3.8529836190622783e-05:4.5822184552543233] [1.9487375937221608e-06:0.3595650852401695] [1.732404020802214e-06:16.007507504358298] [4.8434363140503755e-07:187.96220229170177] [6.7489691877198332e-07:1.0098296015775869] [4.5984456704117889e-07:9.0090464712485563] [2.666354639946356e-07:6.0098399937865361] [3.1573335159929e-06:5.6674526999386208] [0:2] [8.2190492121214658e-07:1.0099032920352431] [1.4746267011145341e-07:1.0099995862377065] none [1.6182880188653214e-06:0.376321609820226] [4.1068428997537153e-07:0.16259200606993399] none [0:1] [7.1892537452433737e-07:0.032232239251866399] [2.8294173076981451e-06:1.0099916755950842] [2.2955070003349844e-06:1.0099980981940822] [1.7036299396067102e-06:1.0099484561771568] [3.4817062631520293e-06:24.000236828811449] [2.918302338213996e-06:1.0099784376640442] [5.4102831257230038e-06:1.0099998207108083] [1.848818329545088e-06:1.005717138278198] [5.2696162137544355e-07:1.0092052855390357] [8.8364425224529694e-07:1.0097776879275575] [1.9715139653941891e-06:2.005433818335685] [2.224814459361735e-07:2.0095351316439323] [5.1165718856194257e-06:1.0097786096282362] [9.4618771252497084e-07:1.0098940478914704] [1.2940384534110283e-06:1.0097933131382191] [1.4312841581576308e-06:1.0098152992250586] [2.3643689999830466e-06:1.0099407863234662] [-67.896272439607657:1.0302656081467103] [-0.53069010767785973:9.6681654374056247] [-75.943734825754262:1.0431429474379863] [-2.4520251115872198:1.5881349464668939] [9.6449114659780124e-07:12.923738373643785] [9.3293487775869544e-07:1.0892476372263995] [1.1942345337445648e-06:1.0099997744094431] [4.3561859494822833e-06:1.0329525145181238] [-0.016949418454454301:2.0676040714517678] [0.00019079139193800001:14.486463712849243] [4.2640054577214322e-08:2.007864689079299] [1.4101330421945055e-06:0.52089675511586297] [-0.67931888406376251:1.3278109287499134] [4.0384823426702357e-05:5.5059574634456672] [-0.015286668278688499:1.0099980242798099] [1:7] [9.7452993789213236e-05:2.0079115593140342] [3.3787691747333428e-07:1.0098061831694689] [0.0091755973841848998:1.009510115297048] [0.0031793329693094001:1.0091199632466374] [-0.0026045883850045002:1.0098528112999852] [1.3529552320773465e-05:1.0099968560732979] [3.4492374654693238e-07:72.431079513731746] [5.1911340879906565e-06:4.6214535287143175] [2.4615948232109558e-07:2.0091696228428586] [0:1] [0.00030142587585279998:1.5321694915139954] [0:1] [-1:6] [2.1929947521611705e-05:1.5179460512150749] [4.5188908720371617e-05:1.5143758340659881] [0:1] [-0.032011655362797403:1.4898238148492804] [0.0001208370223031:1.5813535068238298] [3.6517914326894553e-06:2.0086444345373806] [-0.045128478262282098:1.6910224329711083] [4.9715902134206407e-07:3.0091026549200603] [-1:1] [1.9968100668954493e-07:1.0099835764731373] [6.8342469863591493e-06:1.0109726898353613] [6.563189482133858e-07:1.0099946039993175] [1.4103776533025411e-06:4.0005622421562279] [0.0001042772715498:1.6024285711818482] [6.0845781490903581e-07:1.0112901949292232] [1.777536495839449e-07:1.1553154661956924] [-0.0031716414652935999:4.1122624906242624] [1.9860322522347042e-06:1.5090519434582983] [6.3352274728978308e-07:1.0057102779469993] [-0.0056226542518563998:1.0098774914521995] [6.668362102830838e-05:1.0094640305745373] [1.8616797187078759e-05:1.2589307892347932] [1.2317570837749869e-06:1.0085084618409537] [6.1954673534859732e-05:1.5021488788614441] [2.4716515236944404e-06:1.0099939742516582] [1.194258683054894e-06:1.009990213752437] [6.4363686325119573e-08:1.1951920073675495] [-0.0066941176401124998:1.7491937876171528] [3.3513753128922019e-06:1.009997542493668] [3.2185445421828441e-07:1.3424117970178191] [5.1242958438724177e-07:2.6363651312694856]
tree_sizes=3317 3504 3482 3524 3515 3465 3513 3521 3505 3524 3509 3534 3502 3531 3488 3504 3479 3520 3476 3521 3518 3516 3522 3532 3522 3527 3541 3531 3528 3535 3533 3545 3521 3524 3521 3502 3509 3535 3524 3504 3528 3524 3515 3531 3512 3507 3514 3504 3520 3525 3488 3501 3510 3547 3545 3509 3484 3533 3529 3530 3536 3536 3522 3516 3542 3533 3536 3454 3504 3513 3507 3523 3498 3500 3536 3526 3534 3535 3538 3508 3519 3499 3537 3550 3564 3519 3534 3534 3499 3506 3540 3525 3516 3502 3536 3520 3483 3526 3540 3535 3544 3528 3551 3498 3544 3545 3546 3521 3553 3553 3496 3484 3531 3497 3511 3508 3534 3523 3541 3543 3533 3508 3526 3516 3493 3537 3501 3531 3531 3509 3528 3524 3530 3555 3556 3554 3535 3506 3521 3538 3552 3547 3531 3551 3481 3566 3540 3548 3522 3517 3558 3546 3524 3537 3513 3550 3553 3546 3547 3564 3527 3492 3534 3545 3535 3515 3525 3533 3538 3547 3539 3530 3563 3542 3540 3545 3558 3552 3538 3573 3537 3535 3537 3511 3562 3549 3545 3538 3511 3550 3533 3523 3524 3546 3546 3540 3542 3570 3527 3554 3559 3553 3531 3554 3554 3548 3519 3537 3517 3568 3556 3483 3533 3537 3501 3563 3538 3525 3545 3530 3570 3522 3534 3568 3581 3542 3558 3532 3555 3527 3538 3506 3555 3530 3541 3535 3544 3525 3534 3538 3558 3541 3574 3560 3550 3551 3543 3559 3571 3527 3553 3553 3546 3541 3516 3534 3535 3538 3554 3562 3546 3555 3521 3522 3526 3553 3565 3540 3572 3557 3570 3542 3541 3552 3541 3564 3560 3575 3531 3573 3569 3549 3574 3558 3518 3549 3539 3576 3540 3536 3550 3544 3561 3564 3585 3566 3550 3571 3541 3554 3576 3548 3576 3573 3575 3558 3577 3520 3576 3526 3521 3499 3547 3541 3543 3545 3514 3541 3561 3539 3581 3512 3536 3580 3544 3575 3551 3565 3530 3546 3580 3572 3564 3576 3525 3571 3534 3549 3581 3573 3515 3549 3553 3566 3564 3548 3576 3556 3547 3582 3540 3550 3539 3558 3578 3546 3577 3543 3582 3551 3528 3551 3572 3562 3560 3567 3574 3546 3582 3528 3582 3546 3552 3538 3556 3547 3523 3582 3561 3532 3563 3583 3559 3539 3581 3522 3540 3566 3528 3542 3542 3563 3534 3557 3555 3589 3551 3524 3537 3533 3558 3551 3578 3554 3522 3554 3534 3569 3551 3558 3529 3589 3566 3534 3547 3540 3588 3592 3543 3566 3549 3561 3519 3520 3592 3555 3546 3591 3548 3606 3548 3559 3512 3605 3597 3550 3528 3574 3589 3547 3546 3564 3589 3550 3559 3597 3541 3553 3548 3534 3532 3576 3591 3588 3534 3591 3593 3547 3548 3591 3537 3596 3540 3551 3528 3592 3543 3590 3536 3600 3550 3588 3562 3558 3550 3600 3542 3565 3611 3527 3529 3538 3557 3556 3590 3574 3533 3557 3540 3595 3599 3603 3546 3540 3526 3540 3526 3542 3573 3534 3590 3548 3566 3594 3596 3550 3548 3520 3561 3543 3603 3547 3533 3553 3571 3614 3567 3614 3585 3545 3542 3592 3591 3613 3596 3534 3572 3566 3523 3562 3589 3574 3580 3563 3551 3611 3546 3561 3577 3585 3560 3539 3592 3591 3548 3522 3536 3567 3583 3534 3537 3524 3597 3602 3543 3606 3578 3560 3533 3556 3592 3594 3590 3606 3554 3556 3548 3598 3587 3581 3535 3522 3598 3574 3553 3594 3575 3594 3583 3568 3527 3594 3558 3564 3538 3578 3532 3582 3583 3587 3585 3600 3555 3587 3567 3538 3575 3600 3551 3516 3527 3593 3547 3584 3604 3591 3582 3550 3527 3529 3522 3554 3589 3511 3532 3510 3591 3533 3543 3537 3591 3586 3550 3592 3539 3545 3537 3535 3584 3589 3534 3535 3583 3585 3526 3513 3522 3591 3593 3532 3591 3589 3521 3586 3516 3541 3509 3502 3596 3588 3520 3586 3585 3590 3494 3537 3564 3527 3599 3520 3599 3501 3571 3595 3573 3582 3580 3598 3531 3535 3580 3532 3585 3511 3519 3523 3539 3567 3521 3535 3568 3585 3532 3543 3578 3509 3598 3586 3530 3516 3576 3587 3512 3527 3583 3532 3520 3508 3601 3522 3538 3557 3599 3574 3580 3596 3586 3517 3522 3526 3583 3581 3519 3531 3611 3539 3594 3595 3593 3576 3513 3587 3528 3512 3566 3525 3538 3533 3605 3470 3585 3599 3515 3593 3527 3587 3594 3529 3532 3517 3587 3536 3524 3533 3600 3594 3518 3549 3578 3522 3543 3588 3511 3590 3514 3592 3595 3505 3507 3602 3517 3520 3595 3521 3588 3511 3593 3587 3521 3578 3574 3539 3580 3578 3515 3533 3515 3516 3597 3591 3532 3541 3577 3593 3529 3574 3586 3602 3509 3531 3519 3558 3515 3580 3512 3599 3577 3590 3512 3599 3520 3591 3591 3596 3593 3580 3530 3488 3571 3517 3529 3576 3525 3588 3487 3512 3567 3509 3594 3598 3532 3584 3532 3514 3529 3590 3598 3520 3517 3517 3518 3512 3517 3594 3588 3517 3539 3584 3523 3518 3529 3507 3518 3593 3590 3592 3517 3591 3588 3532 3598 3513 3514 3594 3536 3508 3567 3588 3595 3544 3527 3517 3588 3602 3520 3517 3515 3569 3508 3584 3587 3524 3594 3588 3583 3510 3594 3516 3595 3587 3602 3523 3592 3527 3518 3531 3528 3511 3593 3523 3528 3524 3594 3511 3594 3589 3562 3588 3534 3514 3513 3592 3534 3501 3585 3583 3528 3590 3587 3578 3525 3593 3596 3522 3519 3588 3606 3592 3573 3596 3582 3593 3589 3527 3509 3519 3592 3582 3502 3515 3597 3561 3533 3527 3523 3593 3582 3520 3603 3514 3576 3534 3599 3513 3585 3572 3492 3530 3506 3534 3524 3601 3601 3599 3534 3515 3523 3560 3523 3530 3486 3532 3533 3601 3532 3586 3580 3592 3594 3528 3516 3520 3581 3619 3567 3523 3594 3514 3589 3527 3585 3589 3524 3484 3594 3593 3581 3484 3590 3576 3530 3532 3598 3523 3583 3514 3517 3587 3531 3591

Tree=0
num_leaves=31
num_cat=0
split_feature=0 140 8 3 10 12 8 8 5 11 12 18 17 47 10 4 137 117 53 131 85 54 0 7 50 181 24 10 171 35
split_gain=1617.29 195.773 74.649 68.1067 66.1895 49.5007 36.9558 35.6445 26.0928 20.8437 17.1717 16.5686 13.2594 11.0877 10.2438 8.631 7.00267 5.77324 4.78189 4.69919 4.43724 4.43163 4.12847 3.84868 4.77726 3.7221 3.68647 3.62662 3.4584 3.18943
threshold=0.57558247616002778 0.055948641131038611 0.072426850810452456 0.11234118418637286 0.13368785184499313 0.19638626279837407 0.11115313226425026 0.086191384782903016 0.13721490083189899 0.48557644687367968 0.11121319793378116 0.14277480483123353 0.26387866697581586 0.90621094595508023 0.38026719862081554 0.0092213551924031512 0.26184014560653751 1.0061330648958562 0.0089052692845198508 0.97142296691641328 0.33358809264449857 0.50030758509122464 0.41587684522935603 0.88659606475835984 0.017478111530117402 0.00044117849345825009 0.64184740499006698 0.13257246330463152 0.0034250834886363503 0.56284082764818499
decision_type=8 2 10 8 10 10 8 10 8 2 10 10 8 10 8 2 10 10 2 10 10 10 10 10 8 8 2 8 10 10
left_child=1 4 3 11 7 6 18 13 22 15 21 14 -10 -1 23 26 -5 20 -3 -9 25 -6 -8 24 -2 -14 -7 -17 -11 -26
right_child=2 5 -4 16 10 9 8 19 12 28 -12 -13 17 -15 -16 27 -18 -19 -20 -21 -22 -23 -24 -25 29 -27 -28 -29 -30 -31
leaf_value=-0.0067356558751748199 -0.00014538825230962267 -0.0015578252555166828 0.0005916698124295085 -0.010962617473102891 0.0035280398537988859 -0.0032677740519115191 0.0012516693198838889 0.0019376653641148853 5.5279284115155228e-05 -0.00021594584859178367 -0.0017128327436277937 0.0007824531397026968 0.00031113528576458055 0.00031989966001147024 0.00021051324862721054 -0.00097957578639477298 -0.0016562167637406556 0.00022166626842202964 0.0012761857702733549 -0.00088020571547539465 0.00015153141790017022 -0.00012962326109532634 -0.0013761167137213122 -0.00014737987220427498 -0.0062047705985683469 0.0067254960665720804 0.00031545660917797763 0.0016749310774552386 0.0031150220660824293 -0.00015369615244160121
leaf_weight=97.25 7.0000000000000044 25.25 19.5 1019.5 36.75 34.75 12.500000000000002 8.2500000000000018 13.249999999999998 8.7499999999999982 20.25 11.249999999999998 6.4999999999999991 5.4999999999999991 9.7499999999999982 6.0000000000000027 14.749999999999998 7.7499999999999991 6.9999999999999991 20.25 5.4999999999999991 11.499999999999998 12.999999999999998 6.4999999999999991 85.5 230.75 5.9999999999999991 14.249999999999998 30.25 4.9999999999999991
leaf_count=389 28 101 78 4078 147 139 50 33 53 35 81 45 26 22 39 24 59 31 28 81 22 46 52 26 342 923 24 57 121 20
internal_value=0 0.00166486 -0.010129 -0.0103202 -0.00292415 0.00389072 0.0049466 -0.00505595 0.00556799 0.000133335 0.00145027 -0.00446931 0.00607169 -0.00636654 -0.00504777 -0.00176685 -0.0108809 0.00634784 -0.00061451 0.000500644 0.00649534 0.00293316 -9.69255e-05 -0.00548196 -0.00571455 0.00660665 -0.00282169 0.000761259 0.00259006 -0.00599691
internal_weight=0 621.25 1178.75 1159.25 199.75 421.5 321.5 131.25 289.25 100 68.5 125 263.75 102.75 113.75 61 1034.25 250.5 32.25 28.5 242.75 48.25 25.5 104 97.5 237.25 40.75 20.25 39 90.5
internal_count=7200 2485 4715 4637 799 1686 1286 525 1157 400 274 500 1055 411 455 244 4137 1002 129 114 971 193 102 416 390 949 163 81 156 362
is_linear=0
shrinkage=0.00597707


Tree=1
num_leaves=31
num_cat=0
split_feature=0 140 8 10 2 12 8 8 5 11 173 12 17 47 137 4 10 117 53 131 23 85 0 24 10 81 5 181 171 45
split_gain=1513.68 184.294 70.198 62.7159 62.5814 46.4075 34.78 34.0209 24.568 20.0588 17.0011 16.59 12.4471 10.6013 8.67889 8.31445 7.97511 5.35676 4.67665 4.60643 4.313 4.11807 4.04276 3.5766 3.56412 3.53542 3.61784 3.39629 3.35211 3.17395
threshold=0.57558247616002778 0.055948641131038611 0.072426850810452456 0.13368785184499313 0.19509850157033898 0.19638626279837407 0.11115313226425026 0.086191384782903016 0.13721490083189899 0.48557644687367968 0.36662264650203619 0.10974384323981397 0.26387866697581586 0.90621094595508023 0.44161791466353434 0.0092213551924031512 0.38026719862081554 1.0061330648958562 0.0089052692845198508 0.97142296691641328 0.0089782845552327517 0.33358809264449857 0.41587684522935603 0.64184740499006698 0.13257246330463152 2.3267399806255256 0.71374803711759449 0.00044117849345825009 0.0034250834886363503 0.46327803441695742
decision_type=8 2 10 10 2 10 8 10 8 2 8 8 8 10 10 2 8 10 2 10 2 10 10 2 8 10 10 8 10 10
left_child=1 3 4 7 14 6 18 13 22 15 -6 20 -10 -1 25 23 -12 21 29 -9 -5 27 -8 -7 -17 26 -2 -14 -11 -3
right_child=2 5 -4 11 10 9 8 19 12 28 16 -13 17 -15 -16 24 -18 -19 -20 -21 -22 -23 -24 -25 -26 -27 -28 -29 -30 -31
leaf_value=-0.0063423862965305269 -0.010245268788815032 -0.0022052266241722293 0.0005643743664151714 0.0033366067065976435 0.00070836811709016115 -0.0031013833935300346 0.001198159412371216 0.0018599787800076691 5.2892909663880146e-05 -0.00020721247537058596 -0.0050111180007893592 -0.0016333054195513583 0.00029905499353407916 0.00030772979550247663 -0.00030472025836245027 -0.00094192201613191404 0.00014146277355747255 0.00021285550987461523 0.0012261591793008384 -0.00083933122698784998 -0.00014988575317528762 0.00014576673112842842 -0.0013169055390629581 0.00030333040227376268 0.0016017496865378521 -0.00066141519233643687 -0.0010386307453959026 0.006305623859044306 0.0029600362149741453 0.00043231117454420402
leaf_weight=97.212189093232155 1030.4737038910389 15.249682769179346 19.499941885471344 37.246931582689285 15.247912123799322 34.746818542480469 12.499832361936571 8.2497344613075274 13.249999999999998 8.7499963492155057 83.96309269964695 20.249490648508072 6.4999945759773246 5.4999950826168051 4.9998059570789328 5.9999506473541286 8.9989676475524885 7.74999676644802 6.999902367591857 20.249866023659706 10.999146103858946 5.4999990165233603 12.999789237976072 5.999994993209838 14.249657705426214 5.7452875077724448 8.7430389225482923 230.66054546833038 30.247484758496284 9.9997919797897321
leaf_count=389 4126 61 78 149 61 139 50 33 53 35 336 81 26 22 20 24 36 31 28 81 44 22 52 24 57 23 35 923 121 40
internal_value=0 0.00156061 -0.00947736 -0.00274601 -0.0096569 0.0036497 0.00463875 -0.00475374 0.00522198 0.000129314 -0.0038518 0.00137064 0.00569485 -0.00599287 -0.010131 -0.00167412 -0.00459481 0.00595372 -0.000577829 0.000485291 0.00278165 0.00609136 -9.23787e-05 -0.00267583 0.000724177 -0.0101677 -0.0101997 0.00619523 0.0024599 -0.00148264
internal_weight=0 621.111 1177.67 199.707 1158.17 421.403 321.41 131.212 289.16 99.9939 108.21 68.4956 263.661 102.712 1049.96 60.9964 92.9621 250.411 32.2494 28.4996 48.2461 242.661 25.4996 40.7468 20.2496 1044.96 1039.22 237.161 38.9975 25.2495
internal_count=7200 2485 4715 799 4637 1686 1286 525 1157 400 433 274 1055 411 4204 244 372 1002 129 114 193 971 102 163 81 4184 4161 949 156 101
is_linear=0
shrinkage=0.00578104


Tree=2
num_leaves=31
num_cat=0
split_feature=0 24 12 8 17 7 5 11 8 8 2 10 0 30 5 35 172 45 129 75 13 64 17 39 76 8 11 99 128 78
split_gain=1421.95 202.27 75.3352 45.5515 42.2726 41.6861 37.3768 22.5812 19.4555 15.6895 14.4527 13.5034 10.4117 10.3436 9.51194 9.40746 9.21488 8.70881 8.58832 8.58173 8.17782 6.13385 6.06204 5.81641 5.56907 5.37894 4.55206 4.52803 4.07891 3.96788
threshold=0.59866942737795648 0.40929473696481727 0.10974384323981397 0.072426850810452456 0.35189319149662629 0.55503725767084955 0.14848600465095455 0.52983483595182823 0.11115313226425026 0.10799967718012367 0.50233284022964952 0.38245271395329417 0.44142298458135548 0.0056849884473893003 0.71374803711759449 0.405427825437298 0.98521898909853234 0.25936031499964923 0.52484515099804174 0.07392140810114281 0.077505852024165475 0.0006211300512848002 0.91152347940342549 0.080253976571985006 0.0044480027331931012 0.1648933206996063 0.42678868807508558 0.0074749672808823511 0.30454701856684957 0.00085863437906625012
decision_type=8 2 10 10 10 10 8 2 8 8 2 10 10 2 10 10 10 8 10 2 2 2 10 8 10 10 2 2 10 2
left_child=1 2 4 5 15 10 12 11 -8 -6 14 16 27 -11 22 25 18 -10 -4 -19 21 -15 -2 -23 -21 -1 -7 -3 -25 -30
right_child=3 6 7 -5 9 26 8 -9 17 13 -12 -13 -14 20 -16 -17 -18 19 -20 24 -22 23 -24 28 -26 -27 -28 -29 29 -31
leaf_value=-0.0056143977201808734 -0.013906968494063128 0.0032513619160654157 -0.0092633600377093461 0.00023252911831601306 -0.0018364921002361032 -0.0026706220634649253 -0.0002522634542814167 0.0009507800115160645 0.0013254750277894515 -0.00030178572691255359 -0.0019386914338368104 0.00038891005891416756 -0.002743663908198201 -0.00046986020861056112 -0.0011099208178391041 0.00074860339110670337 0.00023288508929617899 0.00043385028354341954 0.00022118740548312317 0.0084031325784852066 -0.00050819441602316341 -0.00011249060445873101 -0.000565921836549973 0 -1.4769185148979309e-05 0.00029007665531283514 0.001301206519161195 -0.00096967509396282713 4.6686549495764306e-05 0.0077749571337307529
leaf_weight=42.692248210310936 1052.5407981425524 20.991611078381542 101.36368788778782 15.249819114804266 17.73488187789917 17.234580695629123 21.495154067873955 15.242137163877485 28.729820683598518 23.978285193443298 17.730803787708282 9.4964404851198179 25.487714767456055 4.9957164078950873 9.4914423376321775 15.988880068063734 5.9938525706529608 13.48716054856777 4.9970351308584204 216.50400553643703 9.7436842471361143 7.2443523854017284 4.9866709113121024 5.494343012571334 4.9951824098825446 8.24881863594055 8.4959712326526624 8.2464686185121518 5.2448352724313727 51.204234182834625
leaf_count=171 4226 84 406 61 71 69 86 61 115 96 71 38 102 20 38 64 24 54 20 867 39 29 20 22 20 33 34 33 21 205
internal_value=0 0.00159368 -0.00282073 -0.0132195 0.000556202 -0.0134062 0.00575845 -0.00681728 0.00683545 0.0031199 -0.0136474 -0.00779019 -0.000277768 0.0041627 -0.0137829 -0.00372409 -0.00842348 0.00738268 -0.00886117 0.00788628 0.00518894 0.0058759 -0.0138622 0.00634582 0.00823095 -0.00489511 -0.0013501 0.00215897 0.00690022 0.00733169
internal_weight=0 669.601 329.663 1125.73 192.57 1110.48 339.937 137.093 285.211 125.64 1084.75 121.851 54.7258 107.905 1067.02 66.9299 112.355 263.716 106.361 234.986 83.9272 74.1835 1057.53 69.1878 221.499 50.9411 25.7306 29.2381 61.9434 56.4491
internal_count=7200 2681 1320 4519 771 4458 1361 549 1142 503 4355 488 219 432 4284 268 450 1056 426 941 336 297 4246 277 887 204 103 117 248 226
is_linear=0
shrinkage=0.00812466


Tree=3
num_leaves=31
num_cat=0
split_feature=0 140 0 10 5 9 8 137 7 4 140 17 8 23 83 8 10 47 151 50 35 6 120 141 50 120 39 8 186 54
split_gain=1338.45 139.124 99.7864 57.4668 41.4118 33.924 21.8156 20.6705 19.2499 17.822 15.6784 12.3997 12.2807 10.7896 10.7545 10.2464 9.72337 9.04898 8.91512 8.75423 7.96214 6.48459 5.91666 5.70148 5.64591 6.20842 5.99605 4.70416 4.61513 4.2456
threshold=0.54400780573670315 0.055948641131038611 0.65146151854204792 0.13368785184499313 0.17512292640104532 0.072691328328809576 0.086191384782903016 0.04408587386886071 0.67836225676227013 0.0060839533548981512 0.19443332106018221 0.26387866697581586 0.14098585838250413 0.0093868005345913528 0.50911430052069473 0.083103794632850461 0.38026719862081554 0.90621094595508023 0.58798311355078747 0.08818896283151037 0.090273164116476609 0.24832202536808137 0.00031025259808695004 0.022847754693690554 0.20183355770743178 0.0097002109313833514 0.20480538536151224 0.20274158421288627 0.0011817987533067002 0.59059416275119292
decision_type=8 2 10 10 10 10 10 10 10 2 2 8 10 2 10 10 10 10 10 8 10 10 2 10 8 2 10 10 8 10
left_child=1 3 4 6 7 9 17 15 14 16 12 -7 28 29 23 18 21 -1 -2 20 -11 27 -13 -4 25 26 -24 -3 -6 -5
right_child=2 5 8 13 10 11 -8 -9 -10 19 -12 22 -14 -15 -16 -17 -18 -19 -20 -21 -22 -23 24 -25 -26 -27 -28 -29 -30 -31
leaf_value=-0.0064597022083009688 -0.0079009344962734339 -0.0032320928365669119 -0.010911738354545314 0.0036217376024797157 0.00044748511317026479 -0.00020622681708220094 0.00033569630108843849 0.00026771172879912328 -0.00038582557684942409 -0.00071080882284028728 0.0020968907661483003 -5.404724198745913e-05 0.0015848843748437246 -0.0013477920765820365 -0.00064688141034226969 0.00025074070714826085 0.0019461138904738084 0.00035449312716558529 7.0788865995325933e-05 -0.00040965236568560608 0.0044184916981128142 0.0010088016413028389 0.0067497258694616128 -0.00048333895464312322 0.0004515677427546572 8.3721294982028841e-05 0.00015935585539155343 0.00063464464066375779 -0.0039486609674729747 -0.0002482022567897559
leaf_weight=78.788017019629478 120.83786165714264 41.452752843499184 976.28512743115425 40.219872772693634 4.9775376170873633 12.247198581695555 24.495748594403267 14.461658298969267 9.9903809130191785 5.9970096200704566 27.465591326355934 5.9889634847640982 8.2491114437580091 13.495987460017203 8.4578899294137937 5.2496046721935263 12.229381695389746 5.4988754838705054 5.4798444360494605 18.729908287525177 59.382575184106827 9.2346392571926099 193.83814939856529 5.2155025899410239 12.236804872751234 7.4873498082160941 7.7373173236846915 5.4891999661922446 39.063509747385979 9.7462434172630292
leaf_count=316 486 166 3937 161 20 49 98 58 40 24 110 24 33 54 34 21 49 22 22 75 238 37 777 21 49 30 31 22 157 39
internal_value=0 0.00219826 -0.00978029 -0.00239996 -0.00485247 0.00424699 -0.00483171 -0.00662705 -0.0107186 0.0014395 -0.000674064 0.00567296 -0.00237128 0.00197434 -0.0108078 -0.00729793 -0.000860732 -0.00603309 -0.00760373 0.00305044 0.00386558 -0.0019441 0.00597939 -0.0108729 0.00613222 0.00636361 0.00655299 -0.00270031 -0.00346301 0.00304881
internal_weight=0 564.296 1225.73 172.245 225.785 392.051 108.783 146.029 999.949 152.515 79.7558 239.536 52.2902 63.4621 989.959 131.567 68.406 84.2869 126.318 84.1095 65.3796 56.1766 227.289 981.501 221.3 209.063 201.575 46.942 44.041 49.9661
internal_count=7200 2261 4939 690 907 1571 436 587 4032 611 320 960 210 254 3992 529 274 338 508 337 262 225 911 3958 887 838 808 188 177 200
is_linear=0
shrinkage=0.00651523


Tree=4
num_leaves=31
num_cat=0
split_feature=0 140 2 8 10 9 0 8 4 173 17 23 10 47 35 35 17 8 92 54 6 120 50 120 129 39 8 182 54 137
split_gain=1260.85 131.577 97.7235 67.2418 54.6667 31.6741 23.6894 20.8028 16.8118 15.6279 11.7479 10.441 9.39957 8.6941 8.45236 8.35445 8.0616 7.91635 7.03546 6.59422 6.27789 5.60106 5.23837 5.0658 4.99198 4.81632 4.56814 4.35165 4.09766 3.94344
threshold=0.54400780573670315 0.055948641131038611 0.11728581540667317 0.072426850810452456 0.13368785184499313 0.072691328328809576 0.61056166243144838 0.086191384782903016 0.0060839533548981512 0.38665068053292501 0.26387866697581586 0.0093868005345913528 0.38026719862081554 0.90621094595508023 0.090273164116476609 0.27366730967635255 0.90339524130182003 0.11115313226425026 0.50551807660298909 1.0084272963059089 0.24832202536808137 0.00031025259808695004 0.30486797715369501 0.0097002109313833514 0.13555440221649803 0.20480538536151224 0.20274158421288627 0.0011479229739953503 0.59059416275119292 0.26602426131682394
decision_type=8 2 2 10 10 10 10 10 2 8 8 2 10 10 10 10 10 8 8 8 10 2 8 2 10 10 10 10 10 10
left_child=1 4 3 16 7 8 15 13 12 -8 -7 28 20 -1 -10 -4 19 -16 -19 29 26 -12 23 25 -5 -23 -3 -20 -6 -2
right_child=2 5 6 24 11 10 9 -9 14 -11 21 -13 -14 -15 17 -17 -18 18 27 -21 -22 22 -24 -25 -26 -27 -28 -29 -30 -31
leaf_value=-0.0055755431948073756 -0.0094375050209246081 -0.0027998150451149432 -0.0015748614929021825 -0.001166940288558371 0.0031390210414171515 -0.00018050164649856934 0.00022228177594812068 0.00029216305390225008 -0.00082837767136348579 -0.0054092731735899853 -4.7511688811284587e-05 -0.0011788093931505057 0.0017035500279986189 0.00031175342874768938 -0.0006983203957117457 0.0015397953459482202 -0.00027112356588547966 -0.00033841766828084389 -7.0910403562321239e-05 -0.00031694311627380962 0.00088468487013661527 0.0057489126434816656 0.00022155514681639231 0.00014766440477141109 0.001822461251062365 0.00021362824389151877 0.00055814550627683655 0.0044325750336407675 -0.00021758359411936401 -0.0013131614472351035
leaf_weight=78.62546044588089 996.58695688843727 41.454359710216522 35.413127154111862 6.2485841363668468 40.202807322144508 12.24716007709503 15.699959650635718 24.49564602971077 8.2442118227481824 109.11934888362885 5.9890209585428229 13.496165201067923 12.224951937794684 5.4989005625247946 6.248762771487236 21.222438976168633 5.2185565233230582 8.4861251413822156 6.4828274697065345 4.9477291703224173 9.2336942553520185 195.74156802892685 9.4894881546497327 7.737133026123046 12.246636494994162 7.9870520234107962 5.4884307682514182 54.589312747120857 9.746315270662306 12.687364116311072
leaf_count=316 4043 166 142 25 161 49 63 98 33 440 24 54 49 22 25 85 21 34 26 20 37 786 38 31 49 32 22 219 39 51
internal_value=0 0.00188879 -0.00840302 -0.00911303 -0.00206683 0.00365143 -0.00362226 -0.0041661 0.00124735 -0.00479139 0.0048718 0.00170468 -0.00073049 -0.00520487 0.00263074 -0.000272041 -0.0093067 0.00314058 0.00359774 -0.00934351 -0.00167551 0.00513593 0.00526761 0.005436 0.000703509 0.00558964 -0.00233518 0.00408232 0.00264098 -0.00937678
internal_weight=0 563.709 1219.39 1037.94 172.065 391.644 181.455 108.62 152.453 124.819 239.191 63.4453 68.4014 84.1244 84.0512 56.6356 1019.44 75.807 69.5583 1014.22 56.1765 226.944 220.955 211.466 18.4952 203.729 46.9428 61.0721 49.9491 1009.27
internal_count=7200 2261 4939 4209 690 1571 730 436 611 503 960 254 274 338 337 227 4135 304 279 4114 225 911 887 849 74 818 188 245 200 4094
is_linear=0
shrinkage=0.00576095


Tree=5
num_leaves=31
num_cat=0
split_feature=0 24 12 8 31 17 5 11 8 8 10 173 30 0 151 172 12 129 137 13 8 64 85 39 10 45 180 11 149 128
split_gain=1190.53 173.392 67.9336 39.6372 38.0492 37.6298 33.8428 20.1932 17.4677 14.5088 11.791 11.3868 9.5845 9.44323 8.91534 8.43815 8.0571 7.88107 7.55814 6.63537 6.21743 5.91702 5.7634 5.46692 5.23589 4.69955 3.97881 3.72781 3.6662 3.56574
threshold=0.59866942737795648 0.40929473696481727 0.10974384323981397 0.072426850810452456 0.26788163643753388 0.35646498621003292 0.14848600465095455 0.52983483595182823 0.11115313226425026 0.10799967718012367 0.38245271395329417 0.36662264650203619 0.0056849884473893003 0.41983387405764439 0.6467386789441697 0.98521898909853234 0.19296612189834059 0.52484515099804174 0.44161791466353434 0.078880497227605914 0.1648933206996063 0.0006211300512848002 0.17619108231345393 0.080253976571985006 0.13133923129173766 0.25936031499964923 0.0064471400420054508 0.48557644687367968 0.015971810766228604 0.30454701856684957
decision_type=8 2 10 10 2 10 8 2 8 8 10 8 2 10 10 10 10 10 10 2 10 2 10 8 8 8 10 2 10 10
left_child=1 2 5 4 18 14 13 10 -8 -7 15 -6 -11 -3 20 17 22 -4 26 21 28 -14 25 -23 -18 -10 -2 -13 -1 -25
right_child=3 6 7 -5 11 9 8 -9 16 12 -12 27 19 -15 -16 -17 24 -19 -20 -21 -22 23 -24 29 -26 -27 -28 -29 -30 -31
leaf_value=0.0001460781951743884 -0.0099920746053307023 0.0015940199392586569 -0.0068202324287585207 0.00022105296853585984 0.001005678811434264 -0.0013690336134954653 -0.00022607804719818942 0.00070652676755789915 0.00048691167137832384 -0.00021932179098805175 0.00026745014538837237 -0.004328344530015839 -0.00038468902095545771 -0.002046933944582577 0.0011192082144923516 0.00019126619780603454 -0.00067151858866712608 0.00018067085303641528 -0.00025847998214280772 -0.00031843630851994382 0.00035675573312961414 -9.6224454221045629e-05 0 1.4189517011342078e-05 0.00252516256043677 0.0063551023429165481 -0.00046502319907015805 0 -0.0043246120678309104 0.0054772226908222869
leaf_weight=5.7300025820732108 1015.9505650699139 27.693884938955307 100.77346517145634 15.244406357407568 10.982220485806463 17.696099027991295 21.482374832034111 15.226849839091299 11.20885668694973 23.93324388563633 9.4846936464309675 46.131988346576691 4.9858849495649329 26.955334275960922 6.7329638898372641 5.9812780022621146 13.735530138015745 4.991956114768981 4.9868959635496131 8.981421545147894 10.248321533203123 7.233250483870509 6.2357494533061972 5.4819954037666312 41.662186697125435 189.82555317878723 4.9071012735366812 8.9669934511184675 45.005531623959541 56.0339195728302
leaf_count=23 4152 111 406 61 44 71 86 61 45 96 38 186 20 108 27 24 55 20 20 36 41 29 25 22 167 764 20 36 181 225
internal_value=0 0.00114548 -0.002044 -0.00945817 -0.00959617 0.000451241 0.0041546 -0.00500819 0.0049557 0.00234938 -0.00572792 -0.00299532 0.00313611 -0.000283352 -0.00267897 -0.00619016 0.00536139 -0.00651823 -0.00992358 0.00391256 -0.00333604 0.00437707 0.00597427 0.00474078 0.00176769 0.00613637 -0.00996146 -0.00387363 -0.00394519 0.00516154
internal_weight=0 667.32 328.521 1107.17 1091.93 192.063 338.799 136.458 284.15 124.346 121.231 66.0812 106.65 54.6492 67.7168 111.747 262.668 105.765 1025.84 82.7165 60.9839 73.7351 207.27 68.7492 55.3977 201.034 1020.86 55.099 50.7355 61.5159
internal_count=7200 2681 1320 4519 4458 771 1361 549 1142 499 488 266 428 219 272 450 1056 426 4192 332 245 296 834 276 222 809 4172 222 204 247
is_linear=0
shrinkage=0.00633048


Tree=6
num_leaves=31
num_cat=0
split_feature=0 140 0 10 5 12 8 7 137 25 5 24 2 23 8 83 17 129 151 10 117 16 141 10 45 54 70 6 45 149
split_gain=1125.33 114.865 97.9405 49.3993 40.8271 26.8322 25.1182 17.3903 17.0899 17.0018 15.0087 13.9524 11.5961 10.4001 10.3005 9.83447 9.36389 8.77407 8.3088 6.28575 5.66624 5.64715 5.564 4.88856 4.53723 4.18874 4.09851 3.9972 3.94396 3.51478
threshold=0.5366509120571471 0.055948641131038611 0.65146151854204792 0.13368785184499313 0.17512292640104532 0.28011581091251847 0.10667305804569506 0.67836225676227013 0.04408587386886071 0.20917855460382878 0.13721490083189899 0.12650036999050199 0.46550143785947601 0.0093868005345913528 0.083103794632850461 0.50911430052069473 0.39018593078596719 0.29526977292517609 0.58798311355078747 0.50340200292317394 1.0068224713214551 0.069710616169496809 0.022847754693690554 0.0054467179289791516 0.98639151930535995 0.59059416275119292 0.6036885082585316 0.7394491526629704 0.27166872327260816 1.0072669767418299
decision_type=8 2 10 10 10 10 8 10 10 2 8 2 2 2 10 10 8 10 10 10 10 2 10 8 10 10 2 10 8 8
left_child=1 3 4 9 8 6 -3 15 14 26 -8 21 17 25 18 22 -12 -7 19 -2 24 -6 27 -13 28 -5 -1 -4 -18 -25
right_child=2 5 7 13 11 12 10 -9 -10 -11 16 23 -14 -15 -16 -17 20 -19 -20 -21 -22 -23 -24 29 -26 -27 -28 -29 -30 -31
leaf_value=-0.0059397722276818268 -0.007502639017263165 -0.00067671235342228395 -0.010064281124745769 0.0035528031620071046 0.00073108077318590674 -0.0026285104272368806 0.0001230119214185193 -0.00029654341124944121 0.00012857322524407458 3.0807061245025048e-05 0.00070521661439121677 -0.0007947583405404524 0.0025451050087441545 -0.001322814224068452 0.00033724769961037169 -0.00054771469510042333 0.0011324326198694256 0.0013793045000412853 0.00012476806199734742 -2.2100397887381681e-05 -6.4503560655964961e-05 -0.0031345883439316399 -0.00039218611898686739 0.0030522484380007347 0.0001528885043204215 -0.00025497658828537193 -4.7488831478164867e-05 -0.00045684441918169996 0.0065759165909764859 -0.00041991893501622154
leaf_weight=69.160751640796661 120.22270111739635 25.98399306833744 950.33311377465725 38.898980051279068 7.968156933784484 34.669191360473633 23.965162828564644 9.9630895853042585 15.660592466592787 27.642457664012909 24.169945940375328 10.950449109077452 21.205901101231575 13.490280061960219 5.4989590197801581 8.3986686766147596 20.424691468477253 12.466939643025396 5.450427070260047 5.2343185544013968 5.4864675849676123 34.251641348004341 5.1615432053804389 25.409084796905518 6.9503257721662512 9.7409899085760099 5.9656634628772727 4.8929971754550925 207.89998905360699 6.9626764506101599
leaf_count=279 490 104 3917 156 32 139 96 40 63 111 97 44 85 54 22 34 82 50 22 21 22 139 21 102 28 39 24 20 839 28
internal_value=0 0.00214417 -0.0088977 -0.00211623 -0.00432542 0.00399951 0.00473533 -0.00984541 -0.00606526 -0.00443571 0.00524201 -0.000455154 0.000192345 0.00190845 -0.00667524 -0.00993111 0.00564325 -0.00143591 -0.00698179 -0.0072592 0.00600352 -0.00239542 -0.00999344 0.00163333 0.00613876 0.00297563 -0.00562512 -0.0100311 0.00627954 0.00245228
internal_weight=0 548.122 1216.36 164.899 237.609 383.223 314.881 978.749 152.067 102.769 288.897 85.542 68.342 62.1303 136.406 968.786 264.931 47.1361 130.907 125.457 240.761 42.2198 960.388 43.3222 235.275 48.64 75.1264 955.226 228.325 32.3718
internal_count=7200 2205 4995 663 963 1542 1268 4032 618 414 1164 345 274 249 555 3992 1068 189 533 511 971 171 3958 174 949 195 303 3937 921 130
is_linear=0
shrinkage=0.00648112


Tree=7
num_leaves=31
num_cat=0
split_feature=0 24 10 3 8 8 5 0 8 18 57 10 12 35 0 23 50 26 85 53 137 9 45 10 54 131 57 168 35 7
split_gain=1199.39 151.858 63.3863 60.6513 52.6725 34.1768 31.3104 18.8346 17.1994 14.672 13.0461 11.0295 9.56902 9.15732 8.55781 8.10846 6.44827 6.38615 6.14675 6.13653 5.67168 5.64495 5.30402 5.21888 4.7324 4.20741 3.96272 3.88251 3.61038 4.22555
threshold=0.57558247616002778 0.38486521924759182 0.13368785184499313 0.11234118418637286 0.072426850810452456 0.11334511893470002 0.14848600465095455 0.45328230743901426 0.11115313226425026 0.14277480483123353 0.50517139023102275 0.37571686578455821 0.20013072233936671 0.73550068806504953 0.41983387405764439 0.33611450397742426 0.017478111530117402 0.087109707635581166 0.17619108231345393 0.081413312601894758 0.26184014560653751 0.22062761405833037 0.25936031499964923 0.13133923129173766 0.0026199536615850003 0.96939198960727813 0.080306742909502613 0.0033347291456604505 0.61108858700307156 0.88659606475835984
decision_type=8 2 10 8 10 10 8 10 8 10 10 8 10 10 10 2 8 10 10 2 10 10 8 8 10 10 10 8 10 10
left_child=1 2 5 9 20 10 14 15 -8 11 13 16 18 19 26 24 -2 -9 22 21 -5 25 -10 -14 -4 -1 -3 -7 29 -18
right_child=3 6 7 4 -6 27 8 17 12 -11 -12 -13 23 -15 -16 -17 28 -19 -20 -21 -22 -23 -24 -25 -26 -27 -28 -29 -30 -31
leaf_value=-5.0785580232416262e-05 3.6037715574603011e-05 -0.0004356821674129984 -0.00019018202701731238 -0.0061960888726781986 0.00045529703547204583 -0.00052432020863383861 -0.00014772503785780302 0.00071618867808297734 0.00035119290000634208 0.00062180610934414087 0.00039577420306683841 0.00026141687915951834 -0.00046413710747827383 0.00030218350696540567 -0.0011622712584866009 -0.00053723771294191436 -0.0035655972280504537 -0.001376226517943035 -9.557501921450813e-06 -1.0369048155554909e-05 -0.00091699847731195323 -0.00053741356671232034 0.0039581704011957611 0.0014834549632568603 0.0026771995729291888 -0.0041065394091187512 0.0014699203482503123 0.0012710941765796762 -3.659117538781203e-06 -1.1523233236657928e-05
leaf_weight=4.9811818897724143 8.7001062035560626 7.9873744100332287 5.2426889091730109 998.9027336537838 14.485201880335806 7.4933447539806393 20.486142992973328 12.223343938589094 12.972318857908249 11.469336792826651 8.9657008647918683 11.955891981720923 12.980386659502981 5.2317695915698996 25.462712645530701 4.997607246041297 85.865825116634369 27.697334200143814 6.2274834364652625 7.7231876254081717 14.673482954502104 18.927076488733292 191.11937353014946 39.66807122528553 53.866273283958435 101.42512555420399 20.211135342717171 22.978760659694672 5.2374099195003501 5.7433691918849936
leaf_count=20 35 32 21 4078 58 30 82 49 52 46 36 48 52 21 102 20 347 111 25 31 59 76 769 159 216 408 81 92 21 23
internal_value=0 0.000943497 -0.00110772 -0.00570448 -0.00604491 -0.002382 0.00260935 0.0011123 0.00308028 -0.00235975 -0.0030605 -0.00272069 0.00332246 -0.0033175 -8.61423e-05 0.00210658 -0.00304446 -0.000697579 0.0037033 -0.00349163 -0.0061486 -0.00366021 0.00380496 0.00100439 0.0024401 -0.00397246 0.000977111 0.000782062 -0.00326734 -0.00340379
internal_weight=0 618.868 281.753 1157.03 1028.06 177.726 337.115 104.027 283.454 128.972 147.254 117.503 262.968 138.288 53.6612 64.1066 105.547 39.9207 210.319 133.057 1013.58 125.333 204.092 52.6485 59.109 106.406 28.1985 30.4721 96.8466 91.6092
internal_count=7200 2485 1131 4715 4195 714 1354 417 1139 520 592 474 1057 556 215 257 426 160 846 535 4137 504 821 211 237 428 113 122 391 370
is_linear=0
shrinkage=0.00389555


Tree=8
num_leaves=31
num_cat=0
split_feature=0 24 17 21 7 5 8 4 0 8 8 5 0 12 2 151 172 8 23 85 10 158 11 66 117 9 1 99 7 36
split_gain=1087.5 166.563 62.309 40.6975 35.1079 32.6724 31.9575 20.992 16.6459 15.5933 14.6512 10.9699 9.6425 9.47156 9.32662 8.95527 8.7212 6.48101 7.10978 5.52071 5.26723 5.03914 4.20733 4.09208 3.93301 3.71648 3.39834 3.38932 3.25033 3.20265
threshold=0.6038284329472271 0.39655052341214581 0.35189319149662629 0.0099838950022500522 0.55503725767084955 0.14848600465095455 0.072426850810452456 0.0092213551924031512 0.46823852539810645 0.1648933206996063 0.11115313226425026 0.71374803711759449 0.41983387405764439 0.20013072233936671 0.50233284022964952 0.71664908101827729 0.0089901023078145011 0.10667305804569506 0.33611450397742426 0.17619108231345393 0.25756166278602793 0.66406541846712386 0.42678868807508558 0.0099635671512692519 0.0019074875535655003 0.28432823719996336 0.38916681254256186 0.0074749672808823511 0.75773173623859502 0.0092219475875252015
decision_type=8 2 10 10 10 8 10 2 10 10 8 10 10 10 2 10 8 8 2 10 8 10 2 10 10 8 2 2 10 2
left_child=1 2 9 7 6 12 11 -4 17 15 25 14 27 19 -2 23 26 -5 -19 21 -15 -12 -6 24 -1 -7 29 -3 -14 -10
right_child=4 5 3 8 22 10 -8 -9 16 -11 13 -13 28 20 -16 -17 -18 18 -20 -21 -22 -23 -24 -25 -26 -27 -28 -29 -30 -31
leaf_value=-0.00013616214324342155 -0.010736197972804354 0.0025415587900032197 -0.0051043837783968319 -0.00058057692353807942 -0.0019630484489062483 0.0013794143075653992 5.6332128890938919e-05 0.001215638491707458 0.00042220354732308248 0.00063398489924970354 0.0066946037236842084 -0.00066124723434436824 -0.0030055835326146963 -0.00054359919713137109 -0.0014992183117305718 0.00045438056544344526 0.0018505263762525733 0.0048340788360389545 -0.00062209644924433784 -1.989765775245951e-05 0.0028421581092196923 -3.4587297244626448e-05 0.0012947441785001118 -0.00031575648299014537 -0.0074284114830030805 -0.0016338537798356689 0.00065665261009259545 -0.00072573925118124766 0.00059338752610780252 -0.0034367743498547451
leaf_weight=5.2102526724338523 1014.2334765344858 20.441005781292919 52.336403131484985 7.7247321009635925 15.899994760751726 12.739715769886972 13.982367411255835 24.413572788238525 5.7143111228942898 11.495997980237005 200.88168221712112 9.8603653460741025 22.68392246961594 23.201215252280235 16.325973808765411 4.9780136197805396 16.661918625235558 69.908694624900818 6.2291555255651465 6.2265604883432379 32.405130907893181 5.2051272541284552 8.2317322343587858 7.7126299440860739 92.57923224568367 9.7412110418081266 5.4516983628273001 7.2351464182138434 4.9942272454500189 23.116963297128677
leaf_count=21 4204 82 211 31 64 51 56 98 23 46 812 40 91 93 66 20 67 281 25 25 130 21 33 31 375 39 22 29 20 93
internal_value=0 0.00111358 -0.00235964 0.000109925 -0.0102349 0.00438682 -0.0104252 -0.00331073 0.00230986 -0.00582374 0.00525834 -0.0105644 -0.000418209 0.00567519 -0.0106371 -0.00649264 -0.000688325 0.00383891 0.00433134 0.00636492 0.00172576 0.00653884 -0.000736989 -0.00685369 -0.00716861 -0.000100349 -0.00222103 0.00174191 -0.00237302 -0.0028346
internal_weight=0 679.289 333.534 211.557 1078.53 345.755 1054.4 76.75 134.807 121.976 290.401 1040.42 55.3543 267.92 1030.56 110.48 50.9449 83.8626 76.1379 212.313 55.6063 206.087 24.1317 105.502 97.7895 22.4809 34.283 27.6762 27.6781 28.8313
internal_count=7200 2737 1344 851 4463 1393 4366 309 542 493 1171 4310 222 1081 4270 447 205 337 306 858 223 833 97 427 396 90 138 111 111 116
is_linear=0
shrinkage=0.00709121


Tree=9
num_leaves=31
num_cat=0
split_feature=0 24 12 173 17 8 5 11 8 8 2 10 57 81 30 0 35 47 13 182 27 20 64 35 39 141 179 8 99 67
split_gain=1028.88 150.69 61.5997 36.5079 33.1376 30.4455 29.4414 18.8683 15.2837 13.2711 12.0377 10.9683 9.82357 9.49574 8.98596 8.67569 8.5273 7.93206 7.32567 7.00506 7.07789 7.12466 5.78395 5.71303 5.31834 4.43674 4.46938 4.34172 4.26258 4.17203
threshold=0.59866942737795648 0.40929473696481727 0.10974384323981397 0.42823327048348397 0.35189319149662629 0.072426850810452456 0.14848600465095455 0.52983483595182823 0.11115313226425026 0.10799967718012367 0.50233284022964952 0.38245271395329417 0.087935584556695659 2.3267399806255256 0.0056849884473893003 0.44142298458135548 0.405427825437298 0.91612376536629947 0.077505852024165475 0.00040153552654085005 0.76518156659902192 0.08596289818997957 0.0006211300512848002 0.23036377208486558 0.080253976571985006 0.022847754693690554 0.0040080643779486511 0.21200371743999807 0.0074749672808823511 0.00055508446755150019
decision_type=8 2 10 8 10 10 8 2 8 8 2 10 10 10 2 10 10 10 2 8 10 2 2 10 8 10 10 10 2 10
left_child=1 2 4 12 16 10 15 11 -8 -6 13 17 23 25 -11 28 27 -4 22 -10 21 -21 -16 -2 -24 26 -5 -1 -3 -23
right_child=3 6 7 5 9 -7 8 -9 19 14 -12 -13 -14 -15 18 -17 -18 -19 -20 20 -22 29 24 -25 -26 -27 -28 -29 -30 -31
leaf_value=-0.0036427949380972509 -0.0038767689462911319 0.0022046191046319798 -0.0059065218229051768 -0.0089583223307617959 -0.0012524415278140689 3.483946526572098e-05 -0.00020414106688680265 0.00068024770330296072 -7.0107551146255097e-05 -0.00023218381629247522 -0.0017562734791692239 0.00026262592507036368 0.00084785620134652574 -0.00017472686388528586 -0.0003792949178638849 -0.0018933293912058412 0.00062973988053598845 7.041789864910023e-05 -0.0003863319164749676 0.00013866394737164576 0.00035165980595214561 0.00022552525578466175 -0.00010716447971690206 0.00035342550166517824 0.004726830602815737 -0.00044628629497250806 -0.00035171961705341115 0.00028789855803438766 -0.00074824027295456157 0.0054950767644659374
leaf_weight=44.033040195703506 23.218443766236309 20.927247568964962 103.5090841203928 975.77798533439636 17.671312436461449 13.98277500271797 21.480018526315689 15.217481091618536 9.4153522849082929 23.902125328779221 25.763058602809906 9.4760532379150373 18.312482938170433 5.84150806069374 4.9778289496898642 25.429033011198044 15.940049096941946 7.4791992306709281 9.714876860380171 11.667103871703146 16.603641778230667 8.4223419874906522 7.2246340364217785 8.2891943007707578 61.559989795088768 5.6070976853370658 4.8147021979093543 6.4964333772659293 8.2356094866991025 214.88992714881897
leaf_count=178 96 84 420 4088 71 56 86 61 38 96 104 38 74 24 20 102 64 30 39 47 67 34 29 34 248 23 20 26 33 870
internal_value=0 0.00100001 -0.00181155 -0.00836078 0.000430335 -0.00861065 0.00365589 -0.00448459 0.00436461 0.00209596 -0.00872759 -0.00514655 -0.00188706 -0.00885118 0.00280452 -0.000251557 -0.00237437 -0.00557023 0.0035108 0.00472495 0.00489488 0.00513748 0.00399313 -0.00312458 0.0043347 -0.00889531 -0.00892835 -0.00321103 0.00140406 0.00534894
internal_weight=0 664.272 327.202 1081.61 191.52 1031.79 337.07 135.682 282.478 125.051 1017.8 120.464 49.8201 992.041 107.379 54.5919 66.4695 110.988 83.4773 260.998 251.583 234.979 73.7625 31.5076 68.7846 986.2 980.593 50.5295 29.1629 223.312
internal_count=7200 2681 1320 4519 771 4315 1361 549 1142 503 4259 488 204 4155 432 219 268 450 336 1056 1018 951 297 130 277 4131 4108 204 117 904
is_linear=0
shrinkage=0.00597739


Tree=10
num_leaves=31
num_cat=0
split_feature=0 2 7 8 10 9 35 36 18 25 50 23 81 11 143 8 6 0 45 76 22 83 120 120 12 162 88 3 98 27
split_gain=976.03 102.779 90.4633 68.7983 44.8892 27.2693 26.1559 18.1944 14.585 13.8177 11.1021 10.2469 9.54898 9.0647 8.20384 8.92321 7.36076 6.76182 5.46433 5.41157 5.64515 5.01967 4.92394 4.35485 4.11086 4.02776 3.97398 3.94252 3.26139 3.16073
threshold=0.5366509120571471 0.047347180404552609 0.047677770163348655 0.072426850810452456 0.13368785184499313 0.082484691444878369 0.33999554630515899 0.021388658346730854 0.14277480483123353 0.20780379100386662 0.19257428431602994 0.0093868005345913528 0.97130900341193593 0.46732414366522029 6.5000000000000009 0.11115313226425026 0.13864297148702162 0.65146151854204792 0.44095509679868333 0.0032342527974735004 0.10177047929563557 0.50858889761976378 0.00039575694723485006 0.0097002109313833514 0.11121319793378116 0.0070340947153329511 0.0015702341631308502 0.026973602876020155 0.00037358104081035005 0.81330071757527123
decision_type=8 2 10 10 10 10 10 2 10 2 8 2 10 2 10 8 10 10 10 10 10 10 2 2 10 8 2 10 2 10
left_child=1 4 3 12 9 7 8 14 13 -1 19 24 21 -4 15 -3 -9 -8 -16 20 22 -2 -7 28 -6 -11 -17 -15 -24 -30
right_child=2 5 6 -5 11 10 17 16 -10 25 -12 -13 -14 27 18 26 -18 -19 -20 -21 -22 -23 23 -25 -26 -27 -28 -29 29 -31
leaf_value=-0.0059144239366605948 -0.010119639362342111 -0.00083817055519648574 -0.0062489439499627437 0.0010646126522765903 0.0038284469785067848 -5.986021067583527e-05 0.001740203492218457 -0.0026570503156205867 0.00042835570738004956 -0.0015476098568533686 -0.00019192895850413084 -0.0013990308527373448 -4.6819308603091391e-05 0.0011342075210729252 -0.0021029090696365019 -2.6660925173071114e-05 0.0011546331005279709 -0.0017203528577816375 0.0015099580671922384 -0.00019084782428530555 0.00063731292422586111 -0.00078177207691344471 0.00020752725631762069 0.00011704334734032023 -0.00019655443133787234 0.001394002961239575 0.0043397388087700302 -0.0018872305645560692 0.0066543710791960777 0.00017395144070471094
leaf_weight=68.20973801612854 916.67774540185928 10.23694336414337 148.35547867417336 20.97345070540905 30.564661592245102 5.1980336606502524 29.019216671586037 35.055196464061737 15.350792199373243 14.39227667450905 14.189060926437376 13.477417066693304 4.8532097786664954 8.4477560669183749 11.918414756655695 9.9207491576671583 15.3864828646183 17.440106227993965 7.9151297211647025 5.2049320936202994 17.570148050785065 8.0939983725547773 6.1571475565433493 6.7024246901273719 10.737787351012228 12.206117063760756 73.699284315109253 18.398253783583641 171.20130681991577 5.4387408643960944
leaf_count=277 3883 41 615 84 123 21 117 141 62 58 57 54 20 34 48 40 62 72 32 21 71 33 25 27 43 49 298 75 695 22
internal_value=0 0.00209371 -0.00877096 -0.00974697 -0.00238527 0.0038369 -0.00419856 0.0013523 -0.00517862 -0.00473303 0.00523777 0.00190697 -0.0100173 -0.00566402 0.00266528 0.00334156 -0.00148889 0.000266947 -0.000606404 0.0055751 0.00572542 -0.0100658 0.00603516 0.00619079 0.00313005 -0.00016229 0.00394545 -0.000827672 0.00636239 0.00651236
internal_weight=0 545.382 1187.61 950.598 149.588 395.794 237.012 164.132 190.552 94.8081 231.662 54.7799 929.625 175.201 113.691 93.857 50.4417 46.4593 19.8335 217.473 212.268 924.772 194.698 189.5 41.3024 26.5984 83.62 26.846 182.797 176.64
internal_count=7200 2205 4995 4020 604 1601 975 662 786 384 939 220 3936 724 459 379 203 189 80 882 861 3916 790 769 166 107 338 109 742 717
is_linear=0
shrinkage=0.00681106


Tree=11
num_leaves=31
num_cat=0
split_feature=0 2 2 8 10 9 0 36 8 50 18 12 35 8 143 17 129 54 47 120 120 45 39 11 23 45 137 27 182 23
split_gain=1035.36 113.234 88.7715 58.8192 47.8312 31.7431 19.361 18.194 16.4886 13.5265 10.967 10.8228 9.9654 9.08844 9.76274 8.10324 7.58405 7.02675 6.34247 6.16733 6.18444 5.74415 5.69475 4.5922 4.50867 4.35986 4.32269 4.27013 3.95177 4.17036
threshold=0.54400780573670315 0.047347180404552609 0.11382384133170012 0.053836156123793062 0.13368785184499313 0.082484691444878369 0.63825482809891765 0.021388658346730854 0.086191384782903016 0.19257428431602994 0.073131724796423006 0.11121319793378116 0.27366730967635255 0.11115313226425026 6.5000000000000009 0.90339524130182003 0.48317249470532625 1.0084272963059089 0.90621094595508023 0.0097002109313833514 0.00031025259808695004 0.44095509679868333 0.20480538536151224 0.49387970846944562 0.0093868005345913528 0.40009122468983771 0.26602426131682394 0.81330071757527123 0.00097940369096710016 0.00070257663796545011
decision_type=8 2 2 10 10 10 10 2 10 8 10 10 10 8 10 10 10 8 10 2 2 10 10 2 2 10 10 10 8 2
left_child=1 4 3 15 8 7 12 13 18 19 -8 24 -4 -3 28 17 -9 23 -1 20 -7 -16 27 26 -6 -5 -2 -22 -15 -30
right_child=2 5 6 25 11 9 10 16 -10 -11 -12 -13 -14 14 21 -17 -18 -19 -20 -21 22 -23 -24 -25 -26 -27 -28 -29 29 -31
leaf_value=-0.0045723935093791041 -0.0074075249200769083 -0.00082460146909621348 -0.0015045543537777915 0.0013067870340061987 0.0027810152010902668 -0.00015234043536898486 -0.0042000550139420535 -0.0018797754682685782 0.0001079282170566038 -0.00023891008008864747 0.00018972802484043782 -0.00098958715587544222 0.0012315264717935922 -0.00011978956014435177 -0.0014970179265589088 -0.00014132447759773899 0.00090666669080174858 -0.00016571670650987656 0.00015293066554086069 -2.848641169494731e-05 0.0045986010739302247 0.0011410949395618886 1.7682239683302751e-05 -0.00083191555446953671 -0.00022194647875767773 -0.00095788665608656813 -0.00097896056472685715 6.7151732060112231e-05 -0.00020187250814831503 0.0032844554959976864
leaf_weight=72.796757563948631 950.24504861235619 11.239169076085089 45.586558222770691 12.451290816068651 31.348932519555092 5.2122818529605857 96.616859838366508 38.812749907374382 22.722420662641525 14.693511560559271 12.108345404267309 15.476229950785635 26.132111787796021 7.4430262744426718 11.929042324423792 5.1399094909429541 13.171276554465292 4.8389804363250724 4.9894404113292685 7.7008259594440451 194.81703682243824 8.1721922904252988 7.4570115953683844 10.922897443175314 9.2361543327569944 9.9014727324247342 12.559402376413344 6.2002238929271689 4.9637184143066397 72.076916232705116
leaf_count=295 3976 45 184 50 126 21 398 156 91 59 49 62 105 30 48 21 53 20 20 31 788 33 30 45 37 40 51 25 20 291
internal_value=0 0.00145068 -0.00649463 -0.00707714 -0.00183093 0.00276258 -0.00269866 0.000904075 -0.00350943 0.00383092 -0.00377236 0.00134701 -0.000433629 0.00184499 0.00225536 -0.00725022 -0.00109439 -0.00728176 -0.00430657 0.00409925 0.0042352 -0.000373696 0.0043523 -0.00731062 0.00228683 0.000320249 -0.00735627 0.00448781 0.00281916 0.00306165
internal_weight=0 560.459 1186.5 1006.06 156.57 403.889 180.444 167.808 100.509 236.081 108.725 56.0613 71.7187 115.824 104.585 983.706 51.984 978.566 77.7862 221.387 213.687 20.1012 208.474 973.727 40.5851 22.3528 962.804 201.017 84.4837 77.0406
internal_count=7200 2261 4939 4203 631 1630 736 676 406 954 447 225 289 467 422 4113 209 4092 315 895 864 81 843 4072 163 90 4027 813 341 311
is_linear=0
shrinkage=0.00487785


Tree=12
num_leaves=31
num_cat=0
split_feature=0 24 12 17 7 8 5 11 8 8 0 5 131 130 139 35 5 2 47 158 17 182 64 57 154 76 8 22 11 166
split_gain=945.639 144.446 56.6886 33.0028 32.1732 28.2431 27.1654 20.0068 13.2685 12.2824 11.441 10.519 9.93166 8.96293 9.0109 8.75396 8.05617 8.01478 7.77995 6.2411 5.1525 5.32525 5.13787 4.79904 4.77647 4.64928 4.45093 4.27162 3.9696 3.84869
threshold=0.6038284329472271 0.42165590415837523 0.10974384323981397 0.35189319149662629 0.55503725767084955 0.072426850810452456 0.14848600465095455 0.52983483595182823 0.11115313226425026 0.10799967718012367 0.41983387405764439 0.71374803711759449 0.61503614048264565 0.085836340245971074 0.0095529992083247025 0.405427825437298 0.14478255115978969 0.50233284022964952 0.92772288533052261 0.0051707343456830011 0.22804818067730592 0.00040153552654085005 0.0006211300512848002 0.080306742909502613 0.50046097336852602 0.0071309860499564511 0.1648933206996063 0.14403869099506886 0.42678868807508558 0.0098270430968744014
decision_type=8 2 10 10 10 10 10 2 8 8 10 10 10 10 2 10 8 2 10 10 8 8 2 10 10 10 10 10 2 2
left_child=1 2 3 15 5 11 10 12 -8 -5 23 17 -4 -11 16 26 -15 -2 19 -14 -10 -22 -18 -3 -24 27 -1 29 -6 -23
right_child=4 6 7 9 28 -7 8 -9 20 13 -12 -13 18 14 -16 -17 22 -19 -20 -21 21 25 24 -25 -26 -27 -28 -29 -30 -31
leaf_value=-0.0035193127276365115 -0.0080604942990177009 -0.00067180701669165724 0.00050461126947733104 -0.0011474533756203351 -0.0014706726922026805 3.8432092054504956e-05 -0.0001419922325745835 0.00073380824989632181 -3.8357966150415509e-05 -0.00077948671259995151 -0.0017389558233038686 -0.00044465962269144894 0.00013442978012297326 -0.00036881729472052784 -0.00091230910736300633 0.00058405600725936922 -0.00027275018193242555 -0.0011330732031472038 0.00028152217342403195 -0.0054846762527405273 0 0.0049858351069612941 0.0043911752002844338 0.0023548643910016242 -8.6695977019142831e-05 -0.00010284607813077291 0.00018992926283687044 0.0001297526151564636 0.0010393812652270454 2.6021540036790477e-05
leaf_weight=44.527650892734528 984.86995911598206 7.9706117659807196 5.4498490095138541 18.146621197462082 15.823093682527544 13.981925293803213 20.224617227911949 16.204843416810036 7.4615465700626373 11.142595350742338 30.869215652346611 9.7732122391462308 4.9277214407920829 10.929467514157297 5.2181984931230536 16.430195599794388 5.2159889638423911 16.265568032860756 5.2364612519741049 110.45941875874996 8.1601705551147443 213.59629645943642 72.312553435564041 27.294019550085068 6.7184830009937277 4.9562279880046836 8.2451989203691465 8.1606340855360013 8.2271810472011548 5.6598014682531348
leaf_count=181 4204 32 22 73 64 56 81 65 30 45 124 40 20 44 21 66 21 66 21 451 33 869 292 110 27 20 33 33 33 23
internal_value=0 0.000822391 -0.00169716 0.000311122 -0.00767141 -0.00782009 0.00332289 -0.00407309 0.00404973 0.00186964 2.52915e-05 -0.0079273 -0.00471685 0.00250367 0.00296789 -0.00228596 0.00335281 -0.00798473 -0.00501003 -0.0052626 0.00437204 0.00450003 0.00381063 0.00166776 0.00408621 0.00463989 -0.00307416 0.00474538 -0.000501254 0.00487861
internal_weight=0 675.518 341.165 198.887 1048.94 1024.89 334.353 142.278 268.219 129.684 66.1338 1010.91 126.073 111.537 100.395 69.203 95.1765 1001.14 120.624 115.387 247.995 240.533 84.247 35.2646 79.031 232.373 52.7728 227.417 24.0503 219.256
internal_count=7200 2737 1382 803 4463 4366 1355 579 1089 523 266 4310 514 450 405 280 384 4270 492 471 1008 978 340 142 319 945 214 925 97 892
is_linear=0
shrinkage=0.00565239


Tree=13
num_leaves=31
num_cat=0
split_feature=0 24 17 21 18 5 8 4 0 8 8 0 2 0 172 151 12 180 10 8 23 129 141 7 74 85 95 66 117 9
split_gain=896.824 136.562 53.8542 33.6239 32.8891 27.8159 23.9138 19.6327 14.8905 13.8177 11.6339 11.4663 10.6841 9.26051 8.23773 8.22869 7.16412 6.03355 6.02619 5.73014 6.5369 5.32859 4.86492 4.65915 4.48297 4.38207 3.99008 3.89579 3.7228 3.43495
threshold=0.6038284329472271 0.39655052341214581 0.35189319149662629 0.0099838950022500522 0.057693855972882409 0.14848600465095455 0.16231150838192512 0.0088965138538906006 0.46823852539810645 0.1648933206996063 0.11115313226425026 0.41983387405764439 0.50233284022964952 0.74955247585121032 0.0089901023078145011 0.71664908101827729 0.20013072233936671 0.0068030403519196009 0.25756166278602793 0.10667305804569506 0.33611450397742426 0.41536080278746917 0.022847754693690554 0.0115988526767103 0.077730242449236014 0.17619108231345393 0.67977005996920614 0.0099635671512692519 0.0019074875535655003 0.27891802040602792
decision_type=8 2 10 10 10 10 10 2 10 10 8 10 2 10 8 10 10 10 8 8 2 10 10 10 10 10 2 10 10 8
left_child=1 2 9 7 6 11 12 -4 19 15 29 24 17 23 -10 27 25 21 -18 -5 -21 22 -2 -6 -3 26 -12 28 -1 -7
right_child=4 5 3 8 13 10 -8 -9 14 -11 16 -13 -14 -15 -16 -17 18 -19 -20 20 -22 -23 -24 -25 -26 -27 -28 -29 -30 -31
leaf_value=-8.3762932006164196e-05 -0.0090771600420845103 -0.000845831027940042 -0.0043227513297241383 -0.00049863204320897475 -0.0012518906559841785 0.0012397931965896034 0.00060474683589439577 0.0011094080178583507 -0.0019629097356415812 0.00056345747969415902 0.005581544728153121 -0.002039569855018227 -0.0017573685832079054 -0.003282351986205345 0.0016123732648376976 0.00042779240590451895 -0.00067801180441356772 -0.00023179710289985482 0.0025499702738791311 0.0040944764148521575 -0.00056340564325659339 -0.00073837209459053641 -0.00035871229864914238 0.0018979859414227078 0.0024876790972074582 -9.0164775168477592e-07 -1.6632381130522215e-05 -0.00023038923431665346 -0.0062680402661941231 -0.0013850712840843985
leaf_weight=5.1857028305530539 939.90154612064362 5.7353609204292288 50.616415411233902 7.7158450186252594 6.1774009764194515 12.235714316368105 7.2419757843017569 25.588122636079788 34.164828807115555 11.492759659886358 190.54852613806725 32.090196132659912 25.433989807963371 21.212292805314064 16.605072662234306 4.9612323045730582 21.900450214743614 4.9971285313367835 30.259090229868889 69.536197513341904 6.2166676819324485 8.9439934492111188 5.3087656795978537 16.950991898775101 29.749828770756721 5.9426442682743064 4.9227077513933173 7.6864016950130454 91.234190940856934 9.4874742031097394
leaf_count=21 4066 23 206 31 26 49 29 103 138 46 780 129 103 89 67 20 88 21 122 281 25 38 22 69 120 24 20 31 375 38
internal_value=0 0.000898777 -0.00194767 0.000122433 -0.00849323 0.00358403 -0.00873954 -0.00269456 0.00192557 -0.00486978 0.00440637 -8.42935e-05 -0.00882475 -0.00167169 -0.000621087 -0.00544494 0.00475213 -0.00895253 0.00143416 0.00323488 0.00365479 -0.00898909 -0.00904139 0.000812792 0.00179846 0.0053113 0.00545427 -0.00576267 -0.0060393 -3.2666e-05
internal_weight=0 673.875 331.003 210.443 1036.17 342.872 991.827 76.2045 134.239 120.56 275.297 67.5754 984.585 44.3407 50.7699 109.068 253.573 959.151 52.1595 83.4687 75.7529 954.154 945.21 23.1284 35.4852 201.414 195.471 104.106 96.4199 21.7232
internal_count=7200 2737 1344 851 4463 1393 4279 309 542 493 1121 272 4250 184 205 447 1034 4147 210 337 306 4126 4088 95 143 824 800 427 396 87
is_linear=0
shrinkage=0.00639824


Tree=14
num_leaves=31
num_cat=0
split_feature=0 24 10 8 7 8 5 0 18 9 50 8 0 35 1 23 26 27 23 35 139 68 11 57 0 85 53 3 17 70
split_gain=852.356 129.414 52.0484 32.9924 32.0759 31.401 24.3331 22.6262 20.7156 14.3273 12.6228 11.9845 10.6112 8.49992 8.04346 8.02758 6.29519 5.49452 6.09573 5.416 5.14534 4.95234 4.85404 4.64689 4.14193 3.71777 3.43387 3.01255 2.96551 2.91276
threshold=0.6038284329472271 0.42165590415837523 0.13368785184499313 0.10799967718012367 0.051535087285030208 0.072426850810452456 0.14848600465095455 0.45328230743901426 0.073131724796423006 0.22062761405833037 0.0099449382794719026 0.11115313226425026 0.41983387405764439 0.68778611162119241 0.67927852811223988 0.33611450397742426 0.10273823338809807 0.64602351570728933 0.33375527749719608 0.41176453810391406 0.00091401116862250013 0.0130244950574379 0.50320765393553191 0.080306742909502613 0.74955247585121032 0.33861734961150897 0.0050736955494565016 0.048296602298410658 0.29954620697199191 0.20822856846181467
decision_type=8 2 10 10 10 10 10 10 10 10 8 8 10 10 2 2 10 10 2 10 2 2 2 10 10 10 2 10 10 2
left_child=1 2 3 9 5 -2 12 15 19 10 -1 -8 23 14 22 20 -9 18 25 -6 -4 29 -12 -3 -10 -13 -5 -18 -11 -19
right_child=4 6 7 26 8 -7 11 16 24 28 13 17 -14 -15 -16 -17 27 21 -20 -21 -22 -23 -24 -25 -26 -27 -28 -29 -30 -31
leaf_value=0.00046071468873418685 -0.0068588775160277199 -0.00057929402435069339 -0.00032919335392793934 -0.00036474279359443034 -0.0041032171992804118 0.00032518166993095117 -0.00012059815774940351 0.00063867552278131781 0.0014176269360875041 -0.0010587232630217963 -0.0048147970730394053 0.0043310102702151703 -0.0014390155815188353 0.0002784619759808959 0.00015797704199965927 -0.00070424531294898274 0.00019106912951133838 -0.00028602930756059535 0.00015824125062434665 -0.00028042273576641129 0.0031648550443460219 -0.00032519507523045096 -2.7330865747567983e-05 0.0019623754326595355 -0.0008618530268327785 0 0.0016559256689291681 -0.0022837568817719186 0.00071964615587958084 0.0022539865267103415
leaf_weight=8.3962817341089231 847.02243477106094 7.968519762158393 4.9581531137228003 17.944490984082222 129.40606994926929 11.731742456555365 20.222285732626915 18.542160585522652 13.568987742066385 10.745799496769907 126.60471495985985 166.7060395181179 30.852799996733665 5.6782671064138404 6.3724466115236273 5.232975795865058 8.7093445956706983 4.9204254150390616 11.815217569470404 14.396213337779043 57.847458451986313 21.365349277853966 5.7145029902458182 27.234824791550636 6.774188131093978 4.9529708176851264 18.386799424886703 25.943107768893242 18.53234176337719 36.49153845012188
leaf_count=34 3722 32 20 72 551 47 81 75 55 44 521 684 124 23 26 21 35 20 48 60 234 87 23 110 28 20 74 105 75 149
internal_value=0 0.000660061 -0.00139036 -0.00268235 -0.00630522 -0.00675252 0.00269723 0.00100413 -0.00328075 -0.00343733 -0.00394304 0.00329054 1.85605e-05 -0.00423714 -0.00444154 0.0024555 -0.00106246 0.0035551 0.00402581 -0.00383777 0.00286654 0.00131723 -0.00465429 0.00137778 0.000587676 0.00422647 0.000937 -0.00185421 -0.000130356 0.00195202
internal_weight=0 672.139 339.609 218.376 1022.9 858.754 332.53 121.233 164.145 182.044 152.766 266.474 66.0561 144.37 138.692 68.0386 53.1946 246.252 183.474 143.802 62.8056 62.7773 132.319 35.2033 20.3432 171.659 36.3313 34.6525 29.2781 41.412
internal_count=7200 2737 1382 892 4463 3769 1355 490 694 746 627 1089 266 593 570 275 215 1008 752 611 254 256 544 142 83 704 146 140 119 169
is_linear=0
shrinkage=0.00485148


Tree=15
num_leaves=31
num_cat=0
split_feature=0 2 8 0 173 10 35 8 0 28 7 8 12 9 0 4 180 26 171 89 45 17 10 67 125 85 1 99 11 81
split_gain=811.985 123.386 47.7128 44.2719 31.1473 28.2772 23.4224 22.4324 12.716 12.3104 12.1554 11.7601 11.128 8.76751 8.11749 7.61452 5.86534 5.79841 5.72936 5.70228 5.08065 5.05334 5.00373 4.85563 4.26922 4.23267 3.93062 3.92317 3.77482 3.65268
threshold=0.6038284329472271 0.059476135621711959 0.086191384782903016 0.45328230743901426 0.42823327048348397 0.25795436881828798 0.24249563627891557 0.16231150838192512 0.13463144406001237 0.018740687963105605 0.55503725767084955 0.10667305804569506 0.25165214607703695 0.29185182326949183 0.74280205273778932 0.0077716384079571004 0.0068030403519196009 0.098501254498610455 0.0054555319398787517 0.0042425537137495513 0.98639151930535995 0.23993330473078159 0.005606235911300151 0.0022359931633803005 0.0004448497369538001 0.33717454752564974 0.65459774007456095 0.0074186697268250014 0.46732414366522029 2.3267399806255256
decision_type=8 2 10 10 8 10 10 10 10 2 10 8 10 10 10 2 10 10 8 2 10 8 8 8 2 10 2 2 2 10
left_child=1 2 5 11 14 8 9 10 -1 18 16 -3 20 26 -2 -14 29 -7 -5 -8 21 -13 -4 -21 -23 -26 -10 -20 -12 -6
right_child=4 3 22 6 7 17 19 -9 13 -11 28 12 15 -15 -16 -17 -18 -19 27 23 -22 24 -24 -25 25 -27 -28 -29 -30 -31
leaf_value=0.00073191230900116757 0.00051826743428664093 -0.00021261380923334709 -0.00049395859849680351 -0.00096060479241067635 -0.006871852982945929 0.0016633316177804671 -7.9812393486704633e-05 0.00047613529153260853 -0.0049023599555586559 -0.002460251308269597 -0.0016645968782903488 -2.9830954336477686e-05 -0.0010179717776872814 -0.00032487575237018273 -0.0025181645605589073 0.0018062869066139502 -0.00015489523064791792 -0.00093880622765049105 0.0021741101606585975 -0.0004036198632688193 -5.9084598254378408e-05 0.00028978406815098091 0.0021008905830335461 0.0029738549395680277 0.0045928600568880869 0 -3.9677449912850614e-05 -0.00050662057327509444 0.00072215954405929501 -0.00028146103851258222
leaf_weight=4.9577863961458197 24.479520574212074 18.470608741044998 12.712042942643164 13.862909778952597 925.21211363375187 17.579413309693336 25.383341297507286 7.2415546327829352 119.35089200735092 57.91486568748951 13.214226335287096 6.4482624530792245 18.346507713198662 17.700477451086044 22.835021242499352 25.023273214697838 4.9491038322448722 14.619323492050169 17.518941983580593 4.9398479759693137 6.3854588121175757 11.169613301753996 39.15493480861187 41.126992881298065 180.94224633276463 5.4524314254522315 5.1287111043930045 6.1746488064527503 6.2174168527126303 4.9559732675552359
leaf_count=20 101 74 51 56 4115 71 103 29 494 235 54 26 74 72 97 101 21 59 71 20 26 46 158 167 745 22 21 25 25 21
internal_value=0 0.000673522 -0.00215366 0.00220556 -0.00646008 -0.00328052 8.90012e-05 -0.00666258 -0.00408712 -0.00138637 -0.00673011 0.00336399 0.00362106 -0.00435635 -0.0013491 0.000676915 -0.00681818 0.000590753 0.000619259 0.0018924 0.00406562 0.00418791 0.00151076 0.00258867 0.00431359 0.00447877 -0.00475191 0.00157332 -0.000915854 -0.00684716
internal_weight=0 670.364 231.204 439.16 1009.1 179.337 166.922 961.79 147.138 95.4714 954.549 272.238 253.768 142.18 47.3145 43.3698 935.117 32.1987 37.5565 71.4502 210.398 204.013 51.867 46.0668 197.564 186.395 124.48 23.6936 19.4316 930.168
internal_count=7200 2737 946 1791 4463 737 677 4265 607 387 4236 1114 1040 587 198 175 4157 130 152 290 865 839 209 187 813 767 515 96 79 4136
is_linear=0
shrinkage=0.00507354


Tree=16
num_leaves=31
num_cat=0
split_feature=0 24 12 7 8 17 5 18 11 8 8 6 0 130 139 35 5 5 35 171 27 23 64 68 57 142 158 0 85 82
split_gain=774.051 116.51 49.144 32.2523 29.854 27.4394 22.6453 18.9849 17.9102 10.9881 10.8978 10.1401 9.79599 8.14959 8.50783 7.97282 7.48223 5.62721 5.38153 5.31283 5.25749 5.73915 4.93179 4.78085 4.45505 4.45317 3.98348 3.9626 3.42476 3.11571
threshold=0.6038284329472271 0.42165590415837523 0.10974384323981397 0.051535087285030208 0.072426850810452456 0.35646498621003292 0.14848600465095455 0.073131724796423006 0.52983483595182823 0.11115313226425026 0.10799967718012367 0.095270395500165264 0.41983387405764439 0.085836340245971074 0.0095529992083247025 0.405427825437298 0.14478255115978969 0.17158515002160293 0.41176453810391406 1.0076821442893127 0.64602351570728933 0.33375527749719608 0.0006211300512848002 0.0130244950574379 0.080306742909502613 0.020965263267757005 0.53805120389173156 0.74955247585121032 0.33861734961150897 0.50430254160823085
decision_type=8 2 10 10 10 10 10 10 2 8 8 10 10 10 2 10 8 10 10 10 10 2 2 2 10 8 10 10 10 10
left_child=1 2 5 4 -2 15 12 18 11 -8 -7 19 24 -12 16 25 -15 -13 -5 29 21 28 -18 -22 -3 -1 -24 -9 -11 -4
right_child=3 6 8 7 -6 10 9 27 -10 20 13 17 -14 14 -16 -17 22 -19 -20 -21 23 -23 26 -25 -26 -27 -28 -29 -30 -31
leaf_value=0.00047363159462487339 -0.0091651070312212535 -0.00080991063839892525 -0.0066413776183468047 -0.0053943460901651752 0.00047485978544502781 -0.001287594948158623 -0.00016473186045350718 0.0019357343039724398 0.00087119122433603629 0.0057534740610297652 -0.00089754226610015751 -0.002197320832129806 -0.0019433850674824421 -0.00043847883314173248 -0.0010836834212559605 0.0007254037439637604 -0.00034128625436875891 0.0012383179822554652 -0.00030534958293889475 9.9118207561370688e-05 0.0025952597840717393 0.00019224945378010339 0.0049568034323399122 -0.00047886463259125056 0.0026128859678099538 -0.0037978780400132347 -0.0001550751720709335 -0.0011603591253741658 0 -0.0002013594175896976
leaf_weight=5.4414666146039963 821.42626316845417 7.9610566496849051 83.342061653733253 127.10028721392155 11.722087800502775 18.080866798758507 20.217344030737877 13.584032595157625 16.177925452589989 165.2351318448782 11.099644705653189 16.535493254661564 30.828398242592812 10.895651340484621 5.2061367630958548 16.870388835668564 5.1994338482618323 13.769073277711867 14.278481557965277 4.8300522714853278 41.213152751326561 11.787176281213759 72.310504361987114 21.327611699700356 27.136354625225067 47.191910833120346 5.212420478463172 6.7382376044988623 4.9516873061656943 5.7017408162355414
leaf_count=22 3722 32 347 551 47 73 81 55 65 684 45 68 124 44 21 68 21 56 60 20 169 48 294 87 110 194 21 28 20 23
internal_value=0 0.000871523 -0.001832 -0.0083949 -0.00901691 0.00039135 0.00355844 -0.00427702 -0.00448257 0.00435554 0.00209324 -0.00521822 0 0.00281098 0.00334475 -0.00242236 0.00379969 -0.000785691 -0.00502773 -0.00610689 0.0047089 0.00534228 0.00433201 0.00172427 0.00181072 -0.0033365 0.00465947 0.000816039 0.00561335 -0.00638932
internal_weight=0 668.523 337.865 994.849 833.148 197.508 330.658 161.701 140.356 264.732 128.005 124.178 65.9258 109.924 98.8241 69.5038 93.618 30.3046 141.379 93.8739 244.515 181.974 82.7224 62.5408 35.0974 52.6334 77.5229 20.3223 170.187 89.0438
internal_count=7200 2737 1382 4463 3769 803 1355 694 579 1089 519 514 266 446 401 284 380 124 611 390 1008 752 336 256 142 216 315 83 704 370
is_linear=0
shrinkage=0.00672605


Tree=17
num_leaves=31
num_cat=0
split_feature=0 140 7 8 10 35 9 36 25 18 53 50 23 11 143 8 129 0 45 76 181 83 45 8 120 55 47 140 1 3
split_gain=737.171 80.9896 78.4401 57.9876 34.8385 22.3386 22.2311 12.3097 12.0408 12.0128 9.33685 8.90947 8.34803 8.00319 6.88565 7.17436 6.64716 5.58769 5.32576 5.86623 7.14742 5.02681 5.02067 4.09294 3.91853 3.86154 3.77611 3.671 3.6218 3.58957
threshold=0.5366509120571471 0.052564987263274306 0.047677770163348655 0.053836156123793062 0.13368785184499313 0.33999554630515899 0.082484691444878369 0.021388658346730854 0.20780379100386662 0.14277480483123353 0.56139420452365252 0.19257428431602994 0.0093868005345913528 0.46732414366522029 6.5000000000000009 0.11115313226425026 0.48317249470532625 0.65146151854204792 0.54794538797118542 0.0032342527974735004 0.00069781846889010004 0.50858889761976378 0.44095509679868333 0.17293720152709827 0.00034843462993025006 0.96419625108501805 0.91011556269169402 0.045428459798664958 0.0015945186949678002 0.026973602876020155
decision_type=8 2 10 10 10 10 10 2 2 10 2 8 2 2 10 8 10 10 10 10 8 10 10 10 2 8 10 2 2 10
left_child=1 4 3 10 8 9 7 14 26 13 21 18 27 -4 15 -3 -9 -7 19 20 -8 -2 -16 -5 -22 -17 -1 -6 -26 -15
right_child=2 6 5 23 12 17 11 16 -10 -11 -12 -13 -14 29 22 25 -18 -19 -20 -21 24 -23 -24 -25 28 -27 -28 -29 -30 -31
leaf_value=-0.0056052056334692053 -0.0092745494832414607 -0.00080841715243497748 -0.0055768436592607308 -0.0010667060425180669 0.0032093553057505656 0.0017858051685411122 -0.00018297883320110572 -0.002379316338270173 -5.1843115104698896e-05 0.0004854138273012887 6.1407379222034204e-05 -0.00018514219423934082 -0.0013626956188420736 0.0011984943114720802 -0.0021186847096257202 0.00043512015016297227 0.0013191671605648867 -0.0014445840521660964 0.00052175361605091603 -0.00031581915650603524 -2.1343562263528392e-05 -0.0006459891641420472 0.0014241665116667978 0.0020415955950061466 1.3593251598029062e-05 0.0042162171310811073 6.8263088579077755e-05 -0.00056690400484993818 0.006134113733168676 -0.0016979467778489058
leaf_weight=65.25357973575592 841.84449963271618 10.217921644449232 142.21658580005169 13.056258499622347 40.481561720371246 28.780236199498177 7.7914609909057608 35.040516063570976 27.629197001457214 15.269091099500654 4.6816902160644522 13.854941263794897 13.17919574677944 8.3817686736583727 11.600441977381708 24.664729923009872 12.547636941075323 16.940393224358559 18.697119578719139 4.9111967831850043 4.88849814236164 8.1070882230997068 7.8301336765289298 11.971685513854025 5.1144045442342749 55.699447572231293 4.9604453146457663 4.9215930253267279 168.26818606257439 18.035839945077896
leaf_count=271 3864 41 615 54 164 117 32 142 112 62 20 56 53 34 47 101 51 72 77 20 20 34 32 48 21 229 20 20 696 75
internal_value=0 0.00184294 -0.00790456 -0.00887 -0.00207936 -0.00360583 0.00348871 0.00117118 -0.00418104 -0.00455028 -0.00916589 0.00478805 0.0016502 -0.00501418 0.00227364 0.00292415 -0.00126221 0.000481617 0.00510161 0.00541515 0.00559248 -0.00921786 -0.000679123 0.000709975 0.00583822 0.00349575 -0.00529703 0.00272815 0.00598561 -0.000618063
internal_weight=0 537.552 1109.29 879.661 156.426 229.624 381.127 157.601 97.8432 183.903 854.633 223.526 58.5824 168.634 110.013 90.5821 47.5882 45.7206 209.671 190.974 186.063 849.952 19.4306 25.0279 178.271 80.3642 70.214 45.4032 173.383 26.4176
internal_count=7200 2205 4995 4020 640 975 1565 643 403 786 3918 922 237 724 450 371 193 189 866 789 769 3898 79 102 737 330 291 184 717 109
is_linear=0
shrinkage=0.00692355


Tree=18
num_leaves=31
num_cat=0
split_feature=0 2 8 0 7 8 10 35 18 26 8 12 9 24 28 4 10 10 8 45 50 130 36 44 17 125 85 0 171 43
split_gain=705.302 106.473 42.7464 39.224 30.6253 27.942 25.1208 22.7624 17.8258 10.5494 9.28934 9.58838 8.66243 8.02916 7.38685 6.43335 4.91397 4.66569 4.58871 4.4064 4.21125 4.05046 4.58018 3.96359 3.90168 4.37599 4.14486 3.87007 3.3968 3.23422
threshold=0.6038284329472271 0.059476135621711959 0.086191384782903016 0.44142298458135548 0.051535087285030208 0.072426850810452456 0.13368785184499313 0.11915204940377776 0.073131724796423006 0.098501254498610455 0.10667305804569506 0.25165214607703695 0.29185182326949183 0.22443551687749244 0.018172234910270403 0.0077716384079571004 0.38026719862081554 0.005606235911300151 0.085672364864603071 0.98639151930535995 0.014771422511279253 0.92829092122802825 0.031081892738245753 0.0090432868269998516 0.23993330473078159 0.0004448497369538001 0.33358809264449857 0.74955247585121032 0.0077194080344776513 0.15239186806491453
decision_type=8 2 10 10 10 10 10 10 10 10 8 10 10 2 2 2 8 8 8 10 8 10 2 2 8 2 10 10 10 8
left_child=1 2 6 10 5 -2 12 14 16 -8 -3 19 20 -9 28 -13 23 -4 -15 24 -1 -20 -23 -6 -12 -26 -27 -10 -5 -19
right_child=4 3 17 7 8 -7 9 13 27 -11 11 15 -14 18 -16 -17 -18 29 21 -21 -22 22 -24 -25 25 26 -28 -29 -30 -31
leaf_value=-0.00025101582592407273 -0.0087911662781509862 -0.00017000269812108182 -0.00063382832958174375 -0.0010196922494373312 3.7418475878626991e-05 0.00046139643975667968 0.0017953656488610718 -0.00080524945383932513 0.0019089027590791351 -0.0022326499961291373 0 -0.0012306761209115035 -0.00011414721693743408 -0.00043377877757635379 -0.0034354329608485292 0.0022228340828948875 -0.00012325049068221501 -9.7459309133354118e-05 -0.00040520518609200835 -8.4751452967556275e-05 -0.0063047769170313742 0.0040273463507423278 0 -0.0052996141862188973 0.00030625878330055355 0.0058051410468863392 2.258759470799168e-05 -0.0011333679918171635 0.0016869425509405025 0.0033551174975081752
leaf_weight=8.2431157231330889 793.94686739146709 17.463176190853119 12.699005424976347 14.573818385601045 5.7778713554143897 11.721215292811392 30.82029715180397 24.636660933494568 13.586424574255945 25.579457983374596 6.1782876849174508 17.802335202693939 13.679949149489401 11.209293469786642 41.441357359290123 23.427455887198448 11.299277901649473 12.861859902739523 6.8627326041460028 5.881533443927764 98.859476193785667 56.466610699892044 14.469464302062987 122.43359257280827 11.077990785241125 168.14376495778561 6.1707218438386908 6.7153940498828879 9.855892598628996 26.152336910367012
leaf_count=34 3722 70 51 59 26 47 125 100 55 104 25 72 56 45 169 95 48 52 28 24 418 232 59 537 46 702 25 28 40 106
internal_value=0 0.000821361 -0.00265265 0.00270134 -0.0080305 -0.00864403 -0.00407007 0.000212953 -0.00405664 -0.000164662 0.00423779 0.00454574 -0.00549369 0.00187222 -0.00233281 0.000832 -0.00478784 0.00190692 0.0026351 0.00510625 -0.0060006 0.00308113 0.00344522 -0.00509339 0.00525853 0.00540867 0.00563708 0.000813533 0.000387932 0.00265963
internal_weight=0 664.557 228.895 435.661 965.481 805.668 177.182 179.516 159.813 56.3998 256.145 238.682 120.783 113.645 65.8711 41.2298 139.511 51.7132 89.0081 197.452 107.103 77.7988 70.9361 128.211 191.571 185.392 174.314 20.3018 24.4297 39.0142
internal_count=7200 2737 946 1791 4463 3769 737 732 694 229 1059 989 508 464 268 167 611 209 364 822 452 319 291 563 798 773 727 83 99 158
is_linear=0
shrinkage=0.00668007


Tree=19
num_leaves=31
num_cat=0
split_feature=0 140 0 10 7 8 35 18 8 28 12 9 17 12 8 99 48 8 35 88 9 171 0 171 24 5 8 53 81 29
split_gain=673.226 100.924 42.6001 31.328 30.0667 27.2071 27.0805 17.0896 14.7196 13.3154 11.8195 11.1862 9.04069 7.20711 5.94466 5.93244 5.3069 5.56207 4.9891 4.81557 4.72326 4.47967 3.80201 3.78988 3.65111 4.13499 3.62601 3.4064 3.33711 3.27466
threshold=0.6038284329472271 0.038341469236662859 0.45328230743901426 0.13368785184499313 0.051535087285030208 0.053836156123793062 0.24249563627891557 0.073131724796423006 0.086191384782903016 0.018740687963105605 0.097411550113946158 0.080829403699994862 0.25967748374496108 0.2566651775235454 0.11115313226425026 0.0074186697268250014 0.036421191181946207 0.10266718678985097 0.41176453810391406 0.009699073341811552 0.29185182326949183 0.00092104807236940013 0.74955247585121032 0.0054555319398787517 0.0083348127855636511 0.13721490083189899 0.10004851519602771 0.0014639175796897503 0.56372560555866624 0.068870606451552061
decision_type=8 2 10 10 10 10 10 10 10 2 10 10 8 10 8 2 10 8 10 2 10 8 10 8 2 8 8 2 10 10
left_child=1 3 11 8 5 28 9 18 20 15 -5 13 -13 14 -3 23 17 -8 -6 21 -1 -11 -9 -4 -16 -26 -14 -27 -2 -15
right_child=4 2 6 10 7 -7 16 22 -10 19 -12 12 26 29 24 -17 -18 -19 -20 -21 -22 -23 -24 -25 25 27 -28 -29 -30 -31
leaf_value=-0.0053530833991763298 -0.0076818430887290005 -0.00071130964640926469 -0.00046051493581050583 0.0021763455170665047 -0.0044494488837139509 0.0001920904955072475 -0.00030881159171258424 0.0016680378170795609 1.6928963551902238e-07 0.0003199450755117451 -0.0016586702177931398 -0.00045546856186574989 0.00011796225880281453 -0.0015535620890010297 -0.0004223640630313591 -0.0013399567737542245 -0.00058669618802182093 0.0031369083246829336 -0.00022332793317254883 0.00046888693714175407 -0.00028406194785454773 -0.0037278241926596207 -0.0009953085590569124 0.0024398033273324753 -0.00038975382629277656 -0.00011281855587822652 0.0046602820913530527 0.0034573727977038698 -0.00024247196368941756 0.00084144306017305836
leaf_weight=87.215238526463509 773.12977069616318 10.2192145884037 10.834869101643564 34.958051517605782 124.32956172525883 14.077949672937391 13.668935194611548 13.596115633845331 24.158041596412659 5.3646285384893408 21.11004039645195 7.9114443361759186 8.2315132617950422 18.025209620594982 5.3989868909120551 10.079954862594603 10.814259484410284 54.116553381085396 14.206434547901152 4.9312186241149893 10.731363281607626 58.535209372639656 6.707800641655921 17.930915310978889 5.946043714880946 7.9735059738159171 165.73512347042561 59.422676578164101 4.2650788724422446 9.1434927731752378
leaf_count=372 3692 41 44 142 551 58 55 55 97 22 86 32 33 73 22 41 44 222 60 20 44 240 28 73 24 33 693 247 19 37
internal_value=0 0.000705028 0.00208293 -0.00279781 -0.00696809 -0.00751012 -0.000145572 -0.00350011 -0.00420121 -0.00186908 0.000650719 0.00336362 0.004245 0.00139109 0.00205911 0.00062823 0.00207417 0.00255447 -0.00413647 -0.00304732 -0.00499914 -0.00338806 0.000707581 0.00165992 0.00252113 0.00280324 0.00449721 0.00312428 -0.00765228 -0.000718625
internal_weight=0 662.456 484.284 178.173 950.313 791.473 186.277 158.84 122.105 107.677 56.0681 298.007 181.878 116.129 88.9604 38.8457 78.5997 67.7855 138.536 68.8311 97.9466 63.8998 20.3039 28.7658 78.7412 73.3422 173.967 67.3962 777.395 27.1687
internal_count=7200 2737 1996 741 4463 3769 761 694 513 440 228 1235 758 477 367 158 321 277 611 282 416 262 83 117 326 304 726 280 3711 110
is_linear=0
shrinkage=0.0059029


Tree=20
num_leaves=31
num_cat=0
split_feature=0 2 8 0 7 8 10 35 18 0 4 12 8 25 24 28 42 95 27 26 15 35 16 10 8 182 162 130 13 0
split_gain=699.262 105.712 42.3979 38.274 29.542 27.7296 25.1909 22.0392 17.5443 11.7396 9.29245 10.7876 9.32718 8.08182 7.87919 7.27317 6.79391 6.04179 5.37484 5.35157 4.87546 4.83021 4.81708 4.56511 4.52625 4.44377 4.26155 3.91852 4.3989 3.80538
threshold=0.6038284329472271 0.059476135621711959 0.086191384782903016 0.44142298458135548 0.051535087285030208 0.053836156123793062 0.25795436881828798 0.11915204940377776 0.073131724796423006 0.13463144406001237 0.0076220823284479508 0.15315291070430401 0.10667305804569506 0.40861297068286323 0.22443551687749244 0.018172234910270403 0.0053969187172422011 0.062301575664708606 0.77915633554525776 0.098501254498610455 0.72646543059732538 0.41176453810391406 0.10737301373541251 0.005606235911300151 0.085672364864603071 0.00044114708225455004 0.00063804983631355011 0.92829092122802825 0.061450626487318201 0.74955247585121032
decision_type=8 2 10 10 10 10 10 10 10 10 2 10 8 2 2 2 2 2 10 10 10 10 2 8 8 10 8 10 2 10
left_child=1 2 6 10 5 -2 9 15 21 -1 11 12 -3 20 -9 -5 -12 -14 25 -8 22 -6 -11 -4 -16 -18 -19 -26 -29 -10
right_child=4 3 23 7 8 -7 19 14 29 13 16 -13 17 -15 24 -17 18 26 -20 -21 -22 -23 -24 -25 27 -27 -28 28 -30 -31
leaf_value=0.0005615416567980653 -0.0051749335981667284 -0.00062585609107213675 -0.00036754426056970186 0.00023700446920048125 -0.0030333619423204136 0.0001205617861794651 0.0012404453225197498 -0.00046904227342760713 0.0011056314694682082 -0.00033649025417007133 -0.0002204882233175858 -0.00068595211492489803 -0.00015758069403617528 0.00012617641622731851 -0.00025475527572081804 -0.0019906581640250862 -2.4983277908910377e-05 -0.00015177449558286121 -5.5865728292087263e-05 -0.00070102475400000183 2.6431311195363625e-06 -0.00017985737301402701 -0.003757000838710917 0.0015556475675174814 -0.00023029796123758339 0.0035683573364634238 0.002565539893041451 0.002239077190018778 -0.00023941289697968366 -0.00066951832111623952
leaf_weight=4.9470774680376044 788.96319794654846 10.23370338976383 12.698761895298956 24.447157233953476 125.34209257364273 14.111867308616636 17.509523302316666 24.657269313931465 13.608438253402712 13.537603378295897 4.8857225477695456 21.498165279626846 12.814021259546278 8.3319772332906705 11.212612107396124 41.459849625825882 4.8765169829130164 6.0267440974712363 5.8667450398206702 14.589465260505674 6.039095699787139 14.283674716949461 112.2346593439579 39.004257097840309 6.8744510859251013 123.6254930794239 66.010420486330986 64.762010127305984 6.146870180964469 6.7214355170726767
leaf_count=20 3711 41 51 99 551 58 71 100 55 56 20 87 53 34 45 169 20 25 24 59 25 60 472 158 28 514 275 266 25 28
internal_value=0 0.000478875 -0.00156186 0.00158408 -0.00472161 -0.00508042 -0.00239398 0.00013349 -0.00240024 -0.00299092 0.00247994 0.00117355 0.00166081 -0.00319554 0.00109515 -0.00134457 0.00316944 0.00203147 0.00331284 0.000439311 -0.00339241 -0.00282721 -0.00352707 0.00111696 0.00154083 0.00345059 0.00235656 0.00180219 0.00201302 0.00046166
internal_weight=0 664.29 228.892 435.398 963.031 803.075 177.189 179.56 159.956 145.09 255.838 116.583 95.0849 140.143 113.653 65.907 139.254 84.8512 134.369 32.099 131.811 139.626 125.772 51.703 88.9959 128.502 72.0372 77.7833 70.9089 20.3299
internal_count=7200 2737 946 1791 4463 3769 737 732 694 607 1059 481 394 587 464 268 578 353 558 130 553 611 528 209 364 534 300 319 291 83
is_linear=0
shrinkage=0.00393895


Tree=21
num_leaves=31
num_cat=0
split_feature=0 24 12 7 8 17 37 18 11 150 8 6 117 50 35 27 139 12 10 5 171 64 130 16 3 10 35 142 160 167
split_gain=651.031 97.3006 43.4752 29.3842 26.5248 23.933 20.8893 16.5322 16.3053 10.3408 9.73032 9.55585 7.61303 7.51304 7.36996 7.13051 6.19023 5.61756 6.38907 5.35257 5.10678 5.07047 5.07179 4.91469 4.78682 4.7434 4.36803 4.12693 4.0489 3.83341
threshold=0.6038284329472271 0.42165590415837523 0.10974384323981397 0.051535087285030208 0.053836156123793062 0.35646498621003292 0.41478552282070541 0.073131724796423006 0.52983483595182823 0.093226975509050805 0.10799967718012367 0.095270395500165264 1.0071785601381575 0.13594570566373912 0.405427825437298 0.51086876053141705 0.0095529992083247025 0.087630545383123315 0.13133923129173766 0.17158515002160293 1.0076821442893127 0.00081285604274990012 0.083072811598086424 0.24880724203795426 0.066021504357915414 0.38026719862081554 0.10568147760158692 0.020965263267757005 0.21395464577598072 1.0059982719717924
decision_type=8 2 10 10 10 10 2 10 2 2 8 10 10 8 10 10 2 10 8 10 10 2 10 2 10 8 8 8 10 10
left_child=1 2 5 4 -2 14 9 25 11 24 -7 20 16 17 27 -8 21 -11 -19 -13 -4 -12 -23 -17 -3 -5 -24 -1 -20 -30
right_child=3 6 8 7 -6 10 15 -9 -10 13 12 19 -14 -15 -16 23 -18 18 28 -21 -22 22 26 -25 -26 -27 -28 -29 29 -31
leaf_value=0.00041996491314911334 -0.0076161572150461087 0.001590208270345727 -0.0053628901031712757 -0.004375256391016419 0.00018749328323227227 -0.001073419792932248 0.001611839863210434 0.00069607104370569264 0.00076149560487939359 0.0050409472842932014 -0.00031075797052467066 -0.0018478758459936524 -0.00055093329220665859 -0.00044956464168525258 0.00065203435480060915 0.00073353209147600262 -0.00070623087832002464 -0.00089478192138867779 -0.00054096760258236177 0.0011048670326646158 0.00011688384073982375 -0.00028671851735930003 3.4650281289669978e-05 -0.0020501885156817825 -0.0010318868488953987 -8.5863720163792113e-05 0.0043250608338802161 -0.0031699123443644627 0.0031506548548031941 -0.00024884160215021426
leaf_weight=5.4234693795442581 766.97033371031284 21.950519010424614 87.285830616950989 126.64442726969719 14.090644836425779 17.988966301083565 27.124652624130249 20.313957169651985 16.134646579623222 134.97716024518013 7.8672941029071799 16.355543211102489 16.944627121090889 6.6469172686338416 16.808056771755219 16.031760945916176 4.9334163963794699 10.598212733864782 5.247206285595893 13.70724308490753 4.7811551541090003 6.6184844076633444 10.062483415007593 30.070703878998756 18.787909224629402 11.265029504895208 62.705662861466408 46.593229085206985 46.774746671319008 8.567032262682913
leaf_count=22 3711 90 370 563 58 73 112 83 65 568 32 68 69 27 68 66 20 43 22 56 20 27 41 122 77 48 257 194 193 35
internal_value=0 0.00069279 -0.00150058 -0.00692827 -0.00747292 0.000348988 0.00287527 -0.00347396 -0.00372018 0.00360625 0.00175441 -0.00434957 0.00235576 0.0040784 -0.00198541 2.60135e-05 0.00289898 0.00426547 0.00173062 -0.000612262 -0.00511466 0.00323643 0.00358222 -0.0011668 0.000447764 -0.00410636 0.00392087 -0.00277166 0.00234065 0.00271496
internal_weight=0 660.987 334.21 939.284 781.061 195.946 326.777 158.223 138.264 253.55 127.121 122.13 109.132 212.811 68.8248 73.2271 92.1873 206.164 71.1872 30.0628 92.067 87.2539 79.3866 46.1025 40.7384 137.909 72.7681 52.0167 60.589 55.3418
internal_count=7200 2737 1382 4463 3769 803 1355 694 579 1055 519 514 446 888 284 300 377 861 293 124 390 357 325 188 167 611 298 216 250 228
is_linear=0
shrinkage=0.00594423


Tree=22
num_leaves=31
num_cat=0
split_feature=0 2 8 0 173 10 35 8 7 0 4 12 8 25 0 24 28 42 180 95 27 26 15 16 149 182 152 162 3 81
split_gain=622.002 93.8414 38.7362 34.7761 29.1136 22.778 20.5258 19.0154 11.9936 11.1511 9.49525 9.88715 8.781 7.71273 7.54458 7.25804 6.79313 6.53417 6.16279 5.92177 5.28356 5.11817 4.71659 4.90789 4.43409 4.38564 4.33861 4.17047 3.76732 3.75537
threshold=0.6038284329472271 0.059476135621711959 0.086191384782903016 0.44142298458135548 0.42823327048348397 0.25795436881828798 0.11915204940377776 0.16231150838192512 0.55503725767084955 0.13463144406001237 0.0076220823284479508 0.15315291070430401 0.10667305804569506 0.40861297068286323 0.74280205273778932 0.22443551687749244 0.018172234910270403 0.0053969187172422011 0.0068030403519196009 0.062301575664708606 0.77915633554525776 0.098501254498610455 0.72646543059732538 0.10737301373541251 1.0062481745124743 0.00044114708225455004 0.6063203591859283 0.00063804983631355011 0.48467626996452662 2.3267399806255256
decision_type=8 2 10 10 8 10 10 10 10 10 2 10 8 2 10 2 2 2 10 2 10 10 10 2 10 10 8 8 10 10
left_child=1 2 5 10 14 9 16 8 18 -1 11 12 -3 22 -2 -8 -5 -12 29 -14 25 -7 23 -11 -4 -19 28 -21 -17 -6
right_child=4 3 24 6 7 21 15 -9 -10 13 17 -13 19 -15 -16 26 -18 20 -20 27 -22 -23 -24 -25 -26 -27 -28 -29 -30 -31
leaf_value=0.00082783429559792131 0.00074977188919760887 -0.00093359768613867147 0.0023048209929206649 0.00032475888853890366 -0.0071186223345916363 0.0017664019683554823 -0.0006718143647356055 0.000532703171842984 -0.00081223682098222527 -0.00043323154426714444 -0.00034152364809193395 -0.0010085970927854687 -0.00028253210499681116 0.00020520303907144854 -0.0025178928621438527 0.0028267372678639018 -0.0028549081267658215 -6.4153886406698266e-05 -4.1293220476889478e-05 -0.00025280163335680633 -0.00011303096309400076 -0.001023176456205216 2.6987898511633007e-05 -0.0053247941091201616 -0.00042294633020417477 0.0050457407816553142 -0.0003861785963646831 0.0036020143841380041 -0.000413812206619943 -0.0002208349124927069
leaf_weight=4.9324877560138694 24.00002110004425 10.226500153541563 34.72401450574398 24.396152913570404 842.28784348070621 17.434841185808185 24.575999021530151 7.2369599640369406 19.11379075050354 13.428645357489584 4.8636328130960456 21.442146599292755 12.733616441488264 8.2898690700530988 21.699521884322166 71.922611653804779 41.280287936329842 4.8464232087135306 4.7046813815832129 5.9812038689851752 5.8336828202009192 14.545120373368261 5.9920223355293265 110.60826118290424 16.833552807569504 122.21163336932659 11.235799446702002 65.291948184370995 5.3782146722078314 4.7902343422174445
leaf_count=20 101 41 141 99 4115 71 100 29 79 56 20 87 53 34 97 296 169 20 21 25 24 59 25 472 68 514 46 275 22 21
internal_value=0 0.000654933 -0.00218482 0.00219132 -0.00663586 -0.00336405 0.00015953 -0.00687104 -0.00694889 -0.00420556 0.00345405 0.00158102 0.0022762 -0.00450405 -0.00117711 0.00153125 -0.00193625 0.00445941 -0.00705362 0.00281487 0.00466921 0.000607166 -0.00479009 -0.00498649 0.00157913 0.00487212 0.00216292 0.00329374 0.00254322 -0.00708916
internal_weight=0 659.009 226.789 432.22 923.833 175.231 178.789 878.134 870.897 143.251 253.431 115.675 94.2333 138.319 45.6995 113.113 65.6764 137.755 851.783 84.0068 132.892 31.98 130.029 124.037 51.5576 127.058 88.5366 71.2732 77.3008 847.078
internal_count=7200 2737 946 1791 4463 737 732 4265 4236 607 1059 481 394 587 198 464 268 578 4157 353 558 130 553 528 209 534 364 300 318 4136
is_linear=0
shrinkage=0.00579351


Tree=23
num_leaves=31
num_cat=0
split_feature=0 3 0 8 7 8 35 18 17 18 8 9 23 6 113 142 157 17 10 67 167 35 128 65 35 55 141 0 53 21
split_gain=594.639 89.6158 52.3498 33.7803 30.1817 25.6163 19.4342 19.3686 15.2059 15.1739 11.3985 9.41248 8.93644 8.0117 6.93275 6.44442 6.38143 6.12642 5.27566 5.18393 5.15905 5.02714 4.3081 4.02684 4.46694 3.93431 3.82384 3.63879 3.43305 3.29053
threshold=0.6038284329472271 0.066021504357915414 0.39855431299220334 0.15901972777419243 0.051535087285030208 0.053836156123793062 0.11004770158275101 0.060176709981627503 0.45197865587627162 0.073131724796423006 0.084446616338515759 0.1117950779199333 0.33375527749719608 0.23598828862615609 0.0016839536227234002 0.015931173833121204 0.0051411796464458509 0.3766604874030593 0.62767966097971384 0.0025663054995620003 0.0081360591254125512 0.41176453810391406 0.98716738009614924 0.00087222989387730017 0.081202589212671053 0.80160113085313534 0.0087064282674139005 0.74955247585121032 0.3184689957116088 0.0065883679134046509
decision_type=8 10 10 10 10 10 10 10 10 10 8 10 2 10 2 8 8 8 10 8 8 10 8 8 10 10 10 10 2 10
left_child=1 6 8 7 5 28 11 13 25 21 -8 20 17 15 -10 -4 -17 -12 22 -16 -1 -6 26 -21 -25 -3 -18 -11 -2 -9
right_child=4 2 3 -5 9 -7 10 29 14 27 12 -13 -14 -15 19 16 18 -19 -20 23 -22 -23 -24 24 -26 -27 -28 -29 -30 -31
leaf_value=0.00079466858796225245 -0.0081790694021381949 -0.0022596770765968303 0.00037318401730265436 0.0020439976904289463 -0.0046290176146485413 0.00024286709938804911 -0.00038065799907210338 -0.00095963006332919047 -0.00049697446076526672 0.0018084931681964958 0.00039323857473420388 0.0020968794058996319 -5.6782866831748375e-05 -8.7527152993309161e-05 -0.00031565494514790543 0.00017825908401844634 -0.0060548793991399025 0.0053542477732526697 0.00015631894267665629 -0.00026326070711541545 -0.0024614346237638095 -0.0001469697995865041 -0.00026504379577620049 -0.00023707116718449359 0.0042435791176642281 0.0008092052917358924 -0.00011509177234298719 -0.0010820889050993064 -0.00021819264448102204 0.0018325409710489376
leaf_weight=14.698425307869909 734.50038041174412 24.920534178614616 5.0919873267412186 28.370773985981941 121.2386662364006 14.040309950709341 16.142768710851669 6.2867384105920818 18.133259519934654 13.616421014070513 16.911535218358043 29.808279052376747 15.112783446907995 16.930664822459221 11.33933939039707 6.9540555328130713 133.31511408090591 159.5635986328125 5.1721988022327414 6.7402484267950049 25.981959462165833 14.04509426653385 9.4013593345880491 6.8671783804893485 70.254376709461212 8.0029713958501798 6.2285479307174674 6.6816364079713813 4.1736028641462317 14.599503725767134
leaf_count=60 3692 104 21 116 551 58 65 26 75 55 69 123 62 70 47 29 564 673 21 28 106 60 39 28 292 33 26 28 19 60
internal_value=0 0.000720693 -0.00132347 -0.00310851 -0.00737331 -0.0079846 0.00336263 -0.00399813 0.00155502 -0.00359964 0.0042596 0.000230227 0.00465213 -0.00461014 0.00256348 -0.00498376 -0.00518854 0.00500822 -0.00542384 0.00313105 -0.00143775 -0.00427879 -0.005615 0.00356322 0.00388383 -0.00147315 -0.0058609 0.000766079 -0.00814521 0.000908961
internal_weight=0 656.828 378.609 232.351 908.296 752.714 278.219 203.98 146.258 155.582 207.731 70.4887 191.588 183.094 113.334 166.163 161.071 176.475 154.117 95.2011 40.6804 135.284 148.945 83.8618 77.1216 32.9235 139.544 20.2981 738.674 20.8862
internal_count=7200 2737 1579 972 4463 3769 1158 856 607 694 869 289 804 770 470 700 679 742 650 395 166 611 629 348 320 137 590 83 3711 86
is_linear=0
shrinkage=0.00654944


Tree=24
num_leaves=31
num_cat=0
split_feature=0 140 0 7 10 8 35 18 25 28 9 12 17 4 10 99 149 11 55 48 8 88 44 171 162 53 171 0 75 8
split_gain=569.504 85.3745 36.1721 29.7879 28.4614 24.8879 24.2982 14.5573 13.3576 11.8606 10.8569 10.665 8.22919 6.85391 6.59432 5.66163 4.95861 4.85189 4.69998 4.68637 5.15571 4.56252 4.46445 4.3626 3.78912 3.68243 3.65274 3.57501 3.4286 3.39436
threshold=0.6038284329472271 0.038341469236662859 0.45328230743901426 0.051535087285030208 0.13368785184499313 0.053836156123793062 0.24249563627891557 0.073131724796423006 0.20780379100386662 0.018740687963105605 0.080829403699994862 0.097411550113946158 0.25967748374496108 0.007729254871692101 0.38026719862081554 0.0074186697268250014 0.015971810766228604 0.46732414366522029 0.90432644536826678 0.036421191181946207 0.10266718678985097 0.009699073341811552 0.0090432868269998516 0.00092104807236940013 0.0069274544107762008 0.4509665962062181 0.0054555319398787517 0.74955247585121032 0.074193872398347419 0.10004851519602771
decision_type=8 2 10 10 10 10 10 10 2 2 10 10 8 2 10 2 10 2 8 10 8 2 2 8 8 2 8 10 2 8
left_child=1 4 10 5 8 25 9 17 -1 15 13 -6 -12 14 16 26 -3 22 -15 20 -8 23 -5 -11 -10 -2 -4 -9 -18 -14
right_child=3 2 6 7 11 -7 19 27 24 21 12 -13 29 18 -16 -17 28 -19 -20 -21 -22 -23 -24 -25 -26 -27 -28 -29 -30 -31
leaf_value=-0.0047888742227206712 -0.0071107148966766025 0.00080156591524903602 -0.00045477867028225589 0.00017810074275269333 0.0020614378959376714 0.00021183681885453019 -0.00030770825033920815 0.0015775799878350106 -0.0013337173661648108 0.00033478709092840035 -0.0004518596307911805 -0.0015151076045300687 8.2425166683271472e-05 -0.00041175319142195088 0.0017297568390697547 -0.001299923429186352 0.00053061324847651409 -0.00021867553632013681 0.0028096878331737062 -0.00053533561312012591 0.0029150628619805984 0.00046410299513608468 -0.0042259432396868609 -0.0034971234835555957 0.001020699340348428 -0.00014379503616801392 0.0023181705533434731 -0.00094863896626638388 -0.0023646794140327093 0.0042688231607795604
